{"learner":{"attributes":{"scikit_learn":"{\"_estimator_type\": \"classifier\"}"},"feature_names":["url_length","num_dots","num_hyphens","num_subdomains","has_ip","has_at","has_https","num_special_chars","entropy"],"feature_types":["float","float","float","float","float","float","float","float","float"],"gradient_booster":{"model":{"cats":{"enc":[],"feature_segments":[],"sorted_idx":[]},"gbtree_model_param":{"num_parallel_tree":"1","num_trees":"200"},"iteration_indptr":[0,1,2,3,4,5,6,7,8,9,10,11,12,13,14,15,16,17,18,19,20,21,22,23,24,25,26,27,28,29,30,31,32,33,34,35,36,37,38,39,40,41,42,43,44,45,46,47,48,49,50,51,52,53,54,55,56,57,58,59,60,61,62,63,64,65,66,67,68,69,70,71,72,73,74,75,76,77,78,79,80,81,82,83,84,85,86,87,88,89,90,91,92,93,94,95,96,97,98,99,100,101,102,103,104,105,106,107,108,109,110,111,112,113,114,115,116,117,118,119,120,121,122,123,124,125,126,127,128,129,130,131,132,133,134,135,136,137,138,139,140,141,142,143,144,145,146,147,148,149,150,151,152,153,154,155,156,157,158,159,160,161,162,163,164,165,166,167,168,169,170,171,172,173,174,175,176,177,178,179,180,181,182,183,184,185,186,187,188,189,190,191,192,193,194,195,196,197,198,199,200],"tree_info":[0,0,0,0,0,0,0,0,0,0,0,0,0,0,0,0,0,0,0,0,0,0,0,0,0,0,0,0,0,0,0,0,0,0,0,0,0,0,0,0,0,0,0,0,0,0,0,0,0,0,0,0,0,0,0,0,0,0,0,0,0,0,0,0,0,0,0,0,0,0,0,0,0,0,0,0,0,0,0,0,0,0,0,0,0,0,0,0,0,0,0,0,0,0,0,0,0,0,0,0,0,0,0,0,0,0,0,0,0,0,0,0,0,0,0,0,0,0,0,0,0,0,0,0,0,0,0,0,0,0,0,0,0,0,0,0,0,0,0,0,0,0,0,0,0,0,0,0,0,0,0,0,0,0,0,0,0,0,0,0,0,0,0,0,0,0,0,0,0,0,0,0,0,0,0,0,0,0,0,0,0,0,0,0,0,0,0,0,0,0,0,0,0,0,0,0,0,0,0,0],"trees":[{"base_weights":[5.5582165E-3,-3.6973265E-1,2.4111505E0,7.414181E-1,-4.3377644E-1,2.5666072E0,-6.834529E-1,1.0254524E0,4.463742E-1,-6.425918E-1,-1.3227563E-1,-4.184343E-1,2.6402602E0,-9.625496E-1,5.6603014E-1,9.494726E-1,2.0844078E-1,3.6509722E-1,1.3705547E0,-5.6004727E-1,-1.0600989E0,3.5120824E-1,-6.7589986E-1,-1.07562475E-1,1.03673026E-1,2.847135E0,1.7911148E0,-3.463864E-1,-1.1361377E0,-7.871501E-2,9.999045E-1,4.494199E-1,1.0100511E0,4.0401423E-1,-1.8705136E-1,3.4032896E-2,1.598249E0,-6.932707E-1,-3.2303444E-1,-1.3335703E-1,-9.215241E-1,-6.5336704E-2,6.982108E-1,-4.2037663E-1,-8.919862E-1,8.878745E-1,-5.5817807E-1,1.9650215E0,3.0168824E0,3.799755E-1,2.2560978E0,-8.582529E-1,1.11999325E-1,1.1438887E-2,-1.2539467E-1,1.679589E-1,-5.8188323E-2,7.250725E-2,1.5332402E-1,1.4245759E-1,8.3663553E-1,1.2369091E-1,4.5698103E-1,-6.232081E-1,1.11999325E-1,1.914692E-1,7.650456E-1,-2.274799E-2,-8.0687165E-1,-2.0237117E-1,-7.441979E-1,-1.0253096E0,-6.937541E-1,1.12979494E-1,-9.724971E-1,2.6144305E-1,1.2078733E0,-1.4276473E-1,-8.101768E-1,-9.00094E-1,5.398728E-1,1.3914725E0,-3.6474843E-2,6.457919E-2,-9.3264616E-1,2.1809192E0,-1.0279202E0,3.260758E0,2.2994292E0,7.418304E-1,-1.1748532E-1,2.4393125E0,-5.083168E-1,-3.5721892E-1,-1.04739904E-1,1.8540153E-2,-2.7498884E-2,-6.841784E-3,4.2189762E-2,9.1562796E-1,5.82367E-1,-1.946599E-2,1.8628798E-1,6.7597586E-1,3.4342888E-1,-5.061988E-3,-7.716182E-2,9.441475E-2,1.8540153E-2,8.043839E-1,-1.6321735E-1,-7.5653094E-1,-1.2555988E0,-1.4290379E-1,-5.3164226E-1,-9.2085767E-1,-6.382569E-1,-8.487471E-1,-1.2464939E0,-6.032277E-1,-9.225303E-1,-2.1651037E-1,4.004617E-1,-1.103564E0,-2.6735392E-1,-2.1729572E-2,8.9039177E-1,1.0831345E0,3.2133203E0,-5.7494843E-1,3.3769247E-1,-5.9614E-1,-1.0181391E0,-8.389021E-1,-1.144777E0,1.10618226E-1,-2.7498884E-2,3.3958446E-2,1.900402E-1,-1.04739904E-1,-2.7498884E-2,2.27471E-3,2.234231E0,-1.1311728E-1,-2.7498884E-2,1.3077457E0,3.318309E0,3.2255688E0,1.7546542E0,-5.953019E-1,1.7252386E0,3.0972655E0,1.864193E0,1.5233696E-1,-8.8127273E-1,-7.353792E-2,1.8540153E-2,7.968434E-2,1.0513375E-1,1.3746296E-1,3.607914E-2,2.5078788E-2,-1.3019006E-2,7.148685E-2,-5.061988E-3,-5.263417E-3,4.149678E-2,1.1797372E-1,5.541123E-2,-2.507973E-2,6.0659416E-2,-8.439453E-2,-6.456264E-2,-1.3323365E-1,-6.181941E-2,-2.1853065E-2,6.4084823E-3,-1.0512548E-1,-4.1562423E-2,-1.8931588E-2,-9.808428E-2,-4.4569742E-2,-7.937502E-2,-1.0086965E-1,-5.5865794E-2,-9.9726975E-2,-1.3127732E-1,-9.1272704E-2,-4.8833847E-2,-1.1452194E-1,-5.3812087E-2,-3.2963563E-2,1.0200562E-1,7.281518E-2,-3.2136004E-2,-6.1076533E-2,-1.17205754E-1,-7.029276E-2,1.4687374E-1,3.0264184E-2,-5.79825E-2,7.334991E-2,2.3606248E-1,1.520061E-1,4.097623E-2,9.024567E-2,3.3880994E-1,-1.1229088E-1,-3.969142E-2,-3.1479165E-2,4.8949655E-2,-7.590011E-2,2.9553568E-2,-1.1953705E-1,-8.0941096E-2,-6.574952E-2,-9.8093085E-2,-1.2876095E-1,-6.536535E-2,2.2718935E-1,-2.7498884E-2,2.1901185E-2,1.4774953E-1,8.040824E-2,3.3405957E-1,3.3701694E-1,-7.871501E-2,-1.6619904E-2,2.9694232E-1,-1.1139317E-2,-8.565826E-2,-6.1819207E-2,2.3540087E-1,3.168045E-1,4.80055E-2,2.552846E-1,5.541123E-2,4.80055E-2,-2.7498884E-2,-9.9790946E-2,-2.7498884E-2],"categories":[],"categories_nodes":[],"categories_segments":[],"categories_sizes":[],"default_left":[0,0,0,0,0,0,0,0,0,0,0,0,0,0,0,0,0,0,0,0,0,0,0,0,0,0,0,0,0,0,0,0,0,0,0,0,0,0,0,0,0,0,0,0,0,0,0,0,0,0,0,0,0,0,0,0,0,0,0,0,0,0,0,0,0,0,0,0,0,0,0,0,0,0,0,0,0,0,0,0,0,0,0,0,0,0,0,0,0,0,0,0,0,0,0,0,0,0,0,0,0,0,0,0,0,0,0,0,0,0,0,0,0,0,0,0,0,0,0,0,0,0,0,0,0,0,0,0,0,0,0,0,0,0,0,0,0,0,0,0,0,0,0,0,0,0,0,0,0,0,0,0,0,0,0,0,0,0,0,0,0,0,0,0,0,0,0,0,0,0,0,0,0,0,0,0,0,0,0,0,0,0,0,0,0,0,0,0,0,0,0,0,0,0,0,0,0,0,0,0,0,0,0,0,0,0,0,0,0,0,0,0,0,0,0,0,0,0,0,0,0,0,0,0,0,0,0,0,0,0,0,0,0,0,0,0,0,0,0,0,0],"id":0,"left_children":[1,3,5,7,9,11,13,15,17,19,21,23,25,27,29,31,-1,33,35,37,39,41,43,-1,45,47,49,51,53,-1,55,57,59,61,63,-1,65,67,69,-1,71,73,75,77,79,81,83,85,87,89,91,93,-1,-1,-1,-1,95,-1,97,-1,99,101,103,105,-1,-1,107,109,111,113,115,117,119,121,123,125,127,129,131,133,135,137,-1,-1,139,141,143,145,147,149,-1,151,153,155,-1,-1,-1,-1,-1,157,159,-1,161,163,165,-1,-1,-1,-1,167,169,171,173,175,177,179,181,183,185,187,189,191,193,195,197,199,201,203,205,207,209,211,213,215,217,-1,-1,-1,-1,-1,-1,-1,219,-1,-1,221,223,225,227,229,231,233,235,237,239,-1,-1,-1,-1,-1,-1,-1,-1,-1,-1,-1,-1,-1,-1,-1,-1,-1,-1,-1,-1,-1,-1,-1,-1,-1,-1,-1,-1,-1,-1,-1,-1,-1,-1,-1,-1,-1,-1,-1,-1,-1,-1,-1,-1,-1,-1,-1,-1,-1,-1,-1,-1,-1,-1,-1,-1,-1,-1,-1,-1,-1,-1,-1,-1,-1,-1,-1,-1,-1,-1,-1,-1,-1,-1,-1,-1,-1,-1,-1,-1,-1,-1,-1,-1,-1,-1],"loss_changes":[5.1110273E3,3.4882635E2,3.6930518E2,2.193892E1,2.914776E2,1.6109131E2,1.3564249E1,8.914886E0,9.479179E0,9.369092E1,4.9863202E2,6.420088E0,1.1967578E2,2.9101677E0,5.158923E0,3.428627E0,0E0,2.7289314E0,1.8901672E0,7.196875E1,1.5842926E1,1.4520807E2,4.8929047E1,0E0,6.2868366E0,7.934033E1,9.2214294E1,7.136919E0,3.6291142E0,0E0,4.46954E0,1.1662469E0,6.968437E0,1.6608868E0,5.7225266E0,0E0,7.0451736E-1,1.114035E2,4.175341E1,0E0,6.4329834E0,7.408754E1,1.2166373E2,4.4363083E1,6.0921936E0,3.9725814E0,3.6072013E0,6.347644E1,7.57334E1,2.1327053E1,5.5173218E1,2.57483E-1,0E0,0E0,0E0,0E0,2.2758874E-1,0E0,5.537623E-1,0E0,1.1229782E0,4.2989954E-1,2.1778526E0,5.771189E-1,0E0,0E0,2.3296642E-1,2.4873161E1,2.7305176E1,1.2501173E1,2.8419952E0,6.9684296E0,1.4668121E0,3.637439E1,6.6578903E0,5.2801674E1,5.9710297E1,5.0293743E1,6.9936295E0,6.235077E0,1.8473874E0,1.5631952E0,0E0,0E0,1.2651825E-1,1.0155762E1,2.3746443E-1,3.529419E1,5.693683E1,4.0615356E1,0E0,3.208136E1,1.9690003E0,8.2254946E-1,0E0,0E0,0E0,0E0,0E0,1.4825821E-1,3.4174247E0,0E0,3.80041E-1,9.4217396E-1,1.8877592E0,0E0,0E0,0E0,0E0,2.2662506E0,1.2480979E1,1.0382507E1,5.273529E0,8.5520525E0,5.464382E0,2.7298317E0,3.1738434E0,4.8849716E0,1.6259766E-1,2.1460037E0,1.5930691E0,2.5397635E1,4.8709282E1,1.41465E0,1.0947191E1,3.734656E1,1.94971E1,6.978873E1,2.7113342E0,1.1981743E1,1.1533532E1,1.2794651E1,2.1840286E0,9.356323E0,5.7100677E0,0E0,0E0,0E0,0E0,0E0,0E0,0E0,8.805084E0,0E0,0E0,1.8468399E0,1.6470459E1,2.8622864E1,1.8788844E2,1.611731E0,2.7394836E1,6.84256E0,4.901062E1,6.276876E-1,7.257676E-2,0E0,0E0,0E0,0E0,0E0,0E0,0E0,0E0,0E0,0E0,0E0,0E0,0E0,0E0,0E0,0E0,0E0,0E0,0E0,0E0,0E0,0E0,0E0,0E0,0E0,0E0,0E0,0E0,0E0,0E0,0E0,0E0,0E0,0E0,0E0,0E0,0E0,0E0,0E0,0E0,0E0,0E0,0E0,0E0,0E0,0E0,0E0,0E0,0E0,0E0,0E0,0E0,0E0,0E0,0E0,0E0,0E0,0E0,0E0,0E0,0E0,0E0,0E0,0E0,0E0,0E0,0E0,0E0,0E0,0E0,0E0,0E0,0E0,0E0,0E0,0E0,0E0,0E0,0E0,0E0,0E0,0E0,0E0,0E0,0E0,0E0],"parents":[2147483647,0,0,1,1,2,2,3,3,4,4,5,5,6,6,7,7,8,8,9,9,10,10,11,11,12,12,13,13,14,14,15,15,17,17,18,18,19,19,20,20,21,21,22,22,24,24,25,25,26,26,27,27,28,28,30,30,31,31,32,32,33,33,34,34,36,36,37,37,38,38,40,40,41,41,42,42,43,43,44,44,45,45,46,46,47,47,48,48,49,49,50,50,51,51,56,56,58,58,60,60,61,61,62,62,63,63,66,66,67,67,68,68,69,69,70,70,71,71,72,72,73,73,74,74,75,75,76,76,77,77,78,78,79,79,80,80,81,81,84,84,85,85,86,86,87,87,88,88,89,89,91,91,92,92,93,93,99,99,100,100,102,102,103,103,104,104,109,109,110,110,111,111,112,112,113,113,114,114,115,115,116,116,117,117,118,118,119,119,120,120,121,121,122,122,123,123,124,124,125,125,126,126,127,127,128,128,129,129,130,130,131,131,132,132,133,133,134,134,142,142,145,145,146,146,147,147,148,148,149,149,150,150,151,151,152,152,153,153,154,154],"right_children":[2,4,6,8,10,12,14,16,18,20,22,24,26,28,30,32,-1,34,36,38,40,42,44,-1,46,48,50,52,54,-1,56,58,60,62,64,-1,66,68,70,-1,72,74,76,78,80,82,84,86,88,90,92,94,-1,-1,-1,-1,96,-1,98,-1,100,102,104,106,-1,-1,108,110,112,114,116,118,120,122,124,126,128,130,132,134,136,138,-1,-1,140,142,144,146,148,150,-1,152,154,156,-1,-1,-1,-1,-1,158,160,-1,162,164,166,-1,-1,-1,-1,168,170,172,174,176,178,180,182,184,186,188,190,192,194,196,198,200,202,204,206,208,210,212,214,216,218,-1,-1,-1,-1,-1,-1,-1,220,-1,-1,222,224,226,228,230,232,234,236,238,240,-1,-1,-1,-1,-1,-1,-1,-1,-1,-1,-1,-1,-1,-1,-1,-1,-1,-1,-1,-1,-1,-1,-1,-1,-1,-1,-1,-1,-1,-1,-1,-1,-1,-1,-1,-1,-1,-1,-1,-1,-1,-1,-1,-1,-1,-1,-1,-1,-1,-1,-1,-1,-1,-1,-1,-1,-1,-1,-1,-1,-1,-1,-1,-1,-1,-1,-1,-1,-1,-1,-1,-1,-1,-1,-1,-1,-1,-1,-1,-1,-1,-1,-1,-1,-1,-1],"split_conditions":[6E0,3.485826E0,2.8E1,3.321928E0,5.2E1,6.2E1,4.6002727E0,1E0,1E0,4.332145E0,4E0,5.6E1,4.7854095E0,3.9E1,3.1E1,1E1,2.0844078E-1,2.5E1,1.6E1,3.8E1,3.9E1,6.3E1,4.421889E0,-1.07562475E-1,5.8E1,8E0,1.04E2,4.2769413E0,3.5032582E0,-7.871501E-2,4.1E1,2.947703E0,3.0930693E0,3.3371754E0,3E1,3.4032896E-2,3.4406364E0,3.6477427E0,2E0,-1.3335703E-1,2E0,4.5391088E0,1E0,8E0,1.93E2,7E0,4.332145E0,7E0,1.3E1,1.1E1,1.9E1,1E0,1.11999325E-1,1.1438887E-2,-1.2539467E-1,1.679589E-1,4.4E1,7.250725E-2,3.0930693E0,1.4245759E-1,1.7E1,1.2E1,1.6E1,2.6E1,1.11999325E-1,1.914692E-1,2E1,1.6E1,1E0,1E0,4.4E1,4.4509063E0,3E0,1E0,4E0,4.625113E0,1.3E2,7.3E1,1.1E1,4.702831E0,1.6E1,4.6002727E0,-3.6474843E-2,6.457919E-2,4.6758566E0,4.267118E0,1.06E2,7.5E1,3.9454648E0,8E0,-1.1748532E-1,1E0,2.1E1,3.7647352E0,-1.04739904E-1,1.8540153E-2,-2.7498884E-2,-6.841784E-3,4.2189762E-2,1.4E1,3.180833E0,-1.946599E-2,1.7E1,3.459148E0,1.7E1,-5.061988E-3,-7.716182E-2,9.441475E-2,1.8540153E-2,1.5E1,1E0,3.1E1,3.6E1,1E0,4.083068E0,3.8729055E0,3E0,4.7E1,1E0,4.3E1,4.496372E0,4E0,3E0,4.564478E0,2E0,7.9E1,5.226768E0,4.491927E0,4.63966E0,5.8E1,4.1629806E0,1.08E2,1.11E2,7E0,1.08E2,1.10618226E-1,-2.7498884E-2,3.3958446E-2,1.900402E-1,-1.04739904E-1,-2.7498884E-2,2.27471E-3,9E0,-1.1311728E-1,-2.7498884E-2,6.6E1,4.380062E0,1E2,1.17E2,7.8E1,8.6E1,1.7E1,4.947896E0,1E0,2E0,-7.353792E-2,1.8540153E-2,7.968434E-2,1.0513375E-1,1.3746296E-1,3.607914E-2,2.5078788E-2,-1.3019006E-2,7.148685E-2,-5.061988E-3,-5.263417E-3,4.149678E-2,1.1797372E-1,5.541123E-2,-2.507973E-2,6.0659416E-2,-8.439453E-2,-6.456264E-2,-1.3323365E-1,-6.181941E-2,-2.1853065E-2,6.4084823E-3,-1.0512548E-1,-4.1562423E-2,-1.8931588E-2,-9.808428E-2,-4.4569742E-2,-7.937502E-2,-1.0086965E-1,-5.5865794E-2,-9.9726975E-2,-1.3127732E-1,-9.1272704E-2,-4.8833847E-2,-1.1452194E-1,-5.3812087E-2,-3.2963563E-2,1.0200562E-1,7.281518E-2,-3.2136004E-2,-6.1076533E-2,-1.17205754E-1,-7.029276E-2,1.4687374E-1,3.0264184E-2,-5.79825E-2,7.334991E-2,2.3606248E-1,1.520061E-1,4.097623E-2,9.024567E-2,3.3880994E-1,-1.1229088E-1,-3.969142E-2,-3.1479165E-2,4.8949655E-2,-7.590011E-2,2.9553568E-2,-1.1953705E-1,-8.0941096E-2,-6.574952E-2,-9.8093085E-2,-1.2876095E-1,-6.536535E-2,2.2718935E-1,-2.7498884E-2,2.1901185E-2,1.4774953E-1,8.040824E-2,3.3405957E-1,3.3701694E-1,-7.871501E-2,-1.6619904E-2,2.9694232E-1,-1.1139317E-2,-8.565826E-2,-6.1819207E-2,2.3540087E-1,3.168045E-1,4.80055E-2,2.552846E-1,5.541123E-2,4.80055E-2,-2.7498884E-2,-9.9790946E-2,-2.7498884E-2],"split_indices":[7,8,7,8,0,0,8,2,2,8,2,0,8,7,7,0,0,0,0,0,0,0,8,0,0,7,0,8,8,0,7,8,8,8,0,0,8,8,2,0,7,8,2,2,0,7,8,7,7,7,7,2,0,0,0,0,7,0,8,0,0,0,0,0,0,0,0,0,7,7,0,8,7,2,7,8,0,0,2,8,2,8,0,0,8,8,0,0,8,7,0,2,7,8,0,0,0,0,0,0,8,0,0,8,0,0,0,0,0,0,2,0,0,2,8,8,2,0,2,0,8,7,2,8,2,0,8,8,8,0,8,0,0,2,0,0,0,0,0,0,0,0,2,0,0,0,8,0,0,0,0,7,8,2,2,0,0,0,0,0,0,0,0,0,0,0,0,0,0,0,0,0,0,0,0,0,0,0,0,0,0,0,0,0,0,0,0,0,0,0,0,0,0,0,0,0,0,0,0,0,0,0,0,0,0,0,0,0,0,0,0,0,0,0,0,0,0,0,0,0,0,0,0,0,0,0,0,0,0,0,0,0,0,0,0,0,0,0,0,0,0],"split_type":[0,0,0,0,0,0,0,0,0,0,0,0,0,0,0,0,0,0,0,0,0,0,0,0,0,0,0,0,0,0,0,0,0,0,0,0,0,0,0,0,0,0,0,0,0,0,0,0,0,0,0,0,0,0,0,0,0,0,0,0,0,0,0,0,0,0,0,0,0,0,0,0,0,0,0,0,0,0,0,0,0,0,0,0,0,0,0,0,0,0,0,0,0,0,0,0,0,0,0,0,0,0,0,0,0,0,0,0,0,0,0,0,0,0,0,0,0,0,0,0,0,0,0,0,0,0,0,0,0,0,0,0,0,0,0,0,0,0,0,0,0,0,0,0,0,0,0,0,0,0,0,0,0,0,0,0,0,0,0,0,0,0,0,0,0,0,0,0,0,0,0,0,0,0,0,0,0,0,0,0,0,0,0,0,0,0,0,0,0,0,0,0,0,0,0,0,0,0,0,0,0,0,0,0,0,0,0,0,0,0,0,0,0,0,0,0,0,0,0,0,0,0,0,0,0,0,0,0,0,0,0,0,0,0,0,0,0,0,0,0,0],"sum_hessian":[5.6593394E3,4.896322E3,7.6301746E2,2.662552E2,4.6300664E3,7.266833E2,3.6334164E1,1.3439734E2,1.3185785E2,2.7348296E3,1.8952369E3,1.7385702E1,7.092976E2,2.9887781E1,6.446384E0,1.2716958E2,7.2277637E0,1.2248129E2,9.376558E0,2.2853408E3,4.4948877E2,1.00329175E3,8.919451E2,7.2277637E0,1.0157938E1,5.6845386E2,1.4084372E2,7.2277637E0,2.2660017E1,1.3674148E0,5.078969E0,1.4650873E1,1.125187E2,1.14667496E2,7.813799E0,2.1487947E0,7.2277637E0,1.4617664E3,8.235744E2,1.4826683E2,3.0122195E2,4.5632584E2,5.4696594E2,4.1002908E2,4.8191605E2,4.492934E0,5.6650043E0,9.376559E1,4.7468826E2,3.535744E1,1.0548628E2,5.6650043E0,1.5627598E0,1.9534497E0,2.0706566E1,2.7348297E0,2.3441396E0,6.837074E0,7.813799E0,3.105985E1,8.1458855E1,1.8753117E1,9.591438E1,6.251039E0,1.5627598E0,4.2975893E0,2.9301746E0,2.119493E2,1.2498171E3,6.413175E2,1.8225685E2,2.0452618E2,9.669576E1,3.8209476E2,7.423109E1,2.953616E2,2.5160432E2,2.402743E2,1.6975478E2,4.795719E2,2.3441396E0,3.1255195E0,1.3674148E0,1.1720698E0,4.492934E0,8.770989E1,6.055694E0,3.5162094E2,1.2306733E2,2.91064E1,6.251039E0,9.90399E1,6.446384E0,2.3441396E0,3.3208644E0,1.1720698E0,1.1720698E0,4.688279E0,3.1255195E0,6.0166252E1,2.1292603E1,2.7348297E0,1.6018288E1,3.105985E1,6.485453E1,1.5627598E0,4.688279E0,1.7581047E0,1.1720698E0,3.0083126E1,1.8186617E2,1.1261637E3,1.23653366E2,5.4442645E2,9.6891106E1,6.544057E1,1.1681629E2,1.164256E2,8.810058E1,7.188695E1,2.4808811E1,1.7815462E2,2.0394016E2,6.21197E1,1.2111388E1,2.0433084E2,9.1030754E1,2.3832086E2,1.3283458E1,1.263882E2,1.13886116E2,8.55611E1,8.419368E1,3.8717374E2,9.239817E1,1.1720698E0,1.1720698E0,1.5627598E0,1.5627598E0,3.3208644E0,1.1720698E0,2.1487947E0,8.55611E1,4.883624E0,1.1720698E0,1.0743974E1,3.4087698E2,4.3757275E1,7.931006E1,1.2502078E1,1.6604322E1,4.4147964E1,5.4891937E1,2.5394845E0,3.9068995E0,1.1720698E0,1.1720698E0,3.574813E1,2.4418121E1,3.5162094E0,1.7776392E1,1.3478803E1,2.5394845E0,2.9497091E1,1.5627598E0,9.962593E0,5.4891937E1,1.0548629E1,1.9534496E1,1.6389442E2,1.7971737E1,6.260806E2,5.0008313E2,1.0939318E2,1.4260182E1,3.986991E2,1.4572734E2,1.6213633E1,8.0677475E1,5.2743144E0,6.0166252E1,5.391521E1,6.290108E1,7.344971E1,4.2975895E1,2.1878637E1,6.622195E1,1.7581047E1,5.43059E1,1.4455527E1,1.0353283E1,1.6389442E2,1.4260182E1,1.4025769E2,6.368246E1,8.790524E0,5.3329178E1,1.0157938E1,1.9534497E0,1.2951372E2,7.481712E1,8.360765E1,7.423109E0,1.437739E2,9.454697E1,1.3674148E0,1.1916043E1,2.9692436E1,9.669576E1,2.1292603E1,9.259351E1,7.2472984E1,1.3088113E1,4.2975895E1,4.121779E1,1.7248961E2,2.1468413E2,7.032419E1,2.2073982E1,8.438903E1,1.1720698E0,1.7581047E0,8.985868E0,3.3208644E0,3.3755612E2,4.238986E1,1.3674148E0,3.105985E1,4.8250206E1,4.883624E0,7.618454E0,3.5162094E0,1.3088113E1,4.278055E1,1.3674148E0,3.535744E1,1.9534496E1,1.3674148E0,1.1720698E0,2.7348297E0,1.1720698E0],"tree_param":{"num_deleted":"0","num_feature":"9","num_nodes":"241","size_leaf_vector":"1"}},{"base_weights":[-3.1049189E-3,-3.3809263E-1,1.9291668E0,5.6094116E-1,-4.0029106E-1,2.0505762E0,-6.592138E-1,8.5689425E-1,3.2044604E-1,-6.269081E-1,-1.2407314E-1,-2.7418223E-1,2.0955396E0,-9.4093627E-1,4.965377E-1,2.611373E-1,9.3656087E-1,1.5860987E-1,9.391723E-1,-5.508258E-1,-1.0519277E0,-1.5252103E-1,3.1887898E-1,-8.584699E-2,1.6922458E-1,2.2136147E0,1.2201707E0,1.4355825E-1,-1.0425546E0,-8.71776E-2,1.0435435E0,4.398736E-2,1.1034558E-1,1.2782717E0,7.795981E-1,2.984721E-1,-2.306277E-2,1.3415972E0,5.1938486E-1,-6.900519E-1,-3.2652852E-1,-1.2865871E-1,-9.099485E-1,-2.178926E-1,5.804793E-1,1.1213397E-1,-2.7188978E-1,2.252004E0,-3.9196476E-1,6.2182087E-1,2.6714597E0,1.0968345E-1,-7.913354E-2,-6.322742E-1,-1.2013723E0,1.5646002E-1,2.4310201E-3,-1.7792968E-2,4.952172E-2,1.0828197E-1,1.8125118E-1,8.012922E-1,2.1777694E-1,2.4543317E-1,5.1826346E-1,-2.233019E-1,3.3673334E-1,1.4567938E0,1.972853E-2,-1.7896481E-1,7.3449004E-1,-8.61706E-2,-7.8024185E-1,-3.4871823E-1,2.2832215E0,-1.0329936E0,-6.7678916E-1,2.6549255E-2,-4.825502E-1,-5.3798753E-1,7.263827E-1,-1.0403921E-1,5.9774774E-1,2.2674549E0,-1.0502882E-1,-1.251704E-1,1.4035994E-1,1.4303942E0,1.0185218E-1,2.8728142E0,-7.626002E-2,-9.5743203E-1,6.607527E-2,-2.163131E-2,-1.24848895E-1,7.339809E-1,1.2950888E-1,-8.496156E-2,1.0666829E-1,3.6239138E-1,-6.537398E-2,6.9732916E-1,-3.4582915E-4,1.0356464E-1,-3.6744496E-1,7.9064226E-1,-4.5513365E-2,5.2753597E-2,1.5384235E0,-2.4893915E-3,-3.626413E-2,-9.244629E-3,9.0019095E-1,-2.5155503E-1,5.1840293E-1,-7.2900456E-1,-1.2441621E0,-2.772838E-1,-5.207106E-1,7.6236494E-2,2.5718227E-1,-1.0668226E0,5.070036E-1,-9.396093E-1,-5.9372467E-1,-4.746719E-1,8.98415E-2,-5.1376694E-1,1.3537302E0,-2.8485513E-1,-9.029255E-2,1.1289774E0,2.417457E-1,1.333306E-1,-7.2465144E-2,1.7323332E0,2.3586686E0,2.9478833E-1,2.0748162E-1,6.6414285E-1,-8.729993E-1,1.17553234E-1,2.9828438E-1,-1.10424355E-1,-5.0381017E-1,7.715025E-2,1.7172128E-2,2.7756256E-3,4.503792E-2,2.3530802E-2,-1.3663239E-2,4.00756E-2,9.196904E-2,8.22946E-2,-1.7197242E-2,-6.6415355E-2,-2.1791924E-2,9.4004296E-2,-3.5672567E-3,-3.613851E-2,5.8282353E-2,1.7865561E-1,8.366812E-2,1.4871815E-1,6.523421E-2,6.9674335E-2,-3.8032405E-2,1.0002388E-1,-7.630744E-3,-7.416432E-2,1.9752275E-2,-1.285973E-1,-4.673972E-2,-4.456247E-2,-1.8891294E-2,-5.535869E-2,-4.7751167E-3,-7.7588506E-2,-1.1812027E-1,1.18373945E-1,-1.6990423E-2,-3.2177735E-2,-1.10065095E-1,-4.913531E-2,-9.1370165E-2,5.6468276E-3,-5.3700656E-2,1.9459408E-2,-2.4281211E-2,-5.9908874E-2,-1.0851072E-2,4.867712E-2,2.4480812E-1,-6.595305E-2,7.5718634E-2,1.3203064E-1,-1.28534585E-2,1.7699332E-3,2.4809003E-1,1.8593767E-1,-6.1253935E-2,2.5645876E-1,1.9894004E-1,-5.62014E-2,1.3965394E-1,-6.164055E-2,1.04745485E-1,-5.0560948E-2,-9.928117E-2,-1.3393781E-2,-7.385498E-2],"categories":[],"categories_nodes":[],"categories_segments":[],"categories_sizes":[],"default_left":[0,0,0,0,0,0,0,0,0,0,0,0,0,0,0,0,0,0,0,0,0,0,0,0,0,0,0,0,0,0,0,0,0,0,0,0,0,0,0,0,0,0,0,0,0,0,0,0,0,0,0,0,0,0,0,0,0,0,0,0,0,0,0,0,0,0,0,0,0,0,0,0,0,0,0,0,0,0,0,0,0,0,0,0,0,0,0,0,0,0,0,0,0,0,0,0,0,0,0,0,0,0,0,0,0,0,0,0,0,0,0,0,0,0,0,0,0,0,0,0,0,0,0,0,0,0,0,0,0,0,0,0,0,0,0,0,0,0,0,0,0,0,0,0,0,0,0,0,0,0,0,0,0,0,0,0,0,0,0,0,0,0,0,0,0,0,0,0,0,0,0,0,0,0,0,0,0,0,0,0,0,0,0,0,0,0,0,0,0,0,0,0,0,0,0,0,0,0,0,0,0,0,0,0,0,0,0,0,0,0,0],"id":1,"left_children":[1,3,5,7,9,11,13,15,17,19,21,23,25,27,29,31,33,35,37,39,41,43,-1,-1,45,47,49,51,53,-1,55,-1,57,59,61,63,65,67,69,71,73,-1,75,77,79,-1,81,83,85,87,89,-1,-1,91,93,-1,-1,-1,-1,-1,-1,95,97,99,101,103,105,107,-1,109,111,113,115,117,119,121,123,125,127,129,131,-1,133,135,-1,-1,-1,137,139,141,-1,143,-1,-1,-1,145,-1,-1,-1,147,149,151,-1,153,155,157,159,-1,161,-1,-1,-1,163,165,167,169,171,173,175,-1,-1,177,179,181,183,185,187,189,191,193,-1,195,197,-1,-1,199,201,203,-1,205,207,-1,-1,-1,209,-1,-1,-1,-1,-1,-1,-1,-1,-1,-1,-1,-1,-1,-1,-1,-1,-1,-1,-1,-1,-1,-1,-1,-1,-1,-1,-1,-1,-1,-1,-1,-1,-1,-1,-1,-1,-1,-1,-1,-1,-1,-1,-1,-1,-1,-1,-1,-1,-1,-1,-1,-1,-1,-1,-1,-1,-1,-1,-1,-1,-1,-1,-1,-1,-1,-1],"loss_changes":[3.6799023E3,2.7115698E2,2.6531738E2,2.206948E1,2.8361847E2,8.446777E1,1.2967361E1,6.4067764E0,1.7353111E1,7.991852E1,1.9310336E2,4.319691E0,7.869141E1,3.5894127E0,7.031225E0,4.343413E-1,5.612709E0,3.5578902E0,5.39093E0,6.577594E1,1.1385162E1,9.727261E1,0E0,0E0,4.50314E0,7.016577E1,8.154936E1,4.034473E0,1.1078358E0,0E0,3.306695E0,0E0,1.314397E0,1.9241219E0,8.8588715E-1,7.9414606E-1,4.5217204E0,2.0546532E0,3.02607E0,7.0908325E1,4.7781586E1,0E0,6.135086E0,1.2047777E2,2.7525017E1,0E0,5.7251873E0,3.721704E1,1.8596834E1,2.892839E1,2.1323715E1,0E0,0E0,4.882809E0,6.373215E-1,0E0,0E0,0E0,0E0,0E0,0E0,1.8212852E0,5.0814576E0,2.407243E0,1.3537636E0,1.9345727E0,3.9339561E0,4.0099716E-1,0E0,1.4213938E-1,2.1286697E0,1.7174377E1,2.6041138E1,9.75071E0,1.0999222E0,8.565262E0,1.3018684E0,3.0781487E1,5.1949203E1,1.5683713E0,2.850885E1,0E0,5.0684557E0,2.9099365E1,0E0,0E0,0E0,1.9138836E1,2.424025E1,1.413971E0,0E0,8.81052E-3,0E0,0E0,0E0,1.4645004E0,0E0,0E0,0E0,1.3947554E0,4.3442625E-1,3.4192133E-1,0E0,2.7378774E0,1.1043322E0,1.3081412E0,2.818828E0,0E0,9.7304535E-1,0E0,0E0,0E0,8.526182E-1,1.6691473E1,1.0661971E1,1.2130188E1,3.0150146E0,8.412949E0,3.6307945E0,0E0,0E0,4.109726E0,2.0282798E0,1.5105457E0,1.7603664E0,3.6324425E0,3.0055723E1,3.0359634E1,1.3249533E1,5.6254435E0,0E0,1.9490906E1,3.417486E1,0E0,0E0,3.1756287E1,3.885669E1,1.1108505E1,0E0,1.4361253E1,2.1206665E-1,0E0,0E0,0E0,2.4090636E-1,0E0,0E0,0E0,0E0,0E0,0E0,0E0,0E0,0E0,0E0,0E0,0E0,0E0,0E0,0E0,0E0,0E0,0E0,0E0,0E0,0E0,0E0,0E0,0E0,0E0,0E0,0E0,0E0,0E0,0E0,0E0,0E0,0E0,0E0,0E0,0E0,0E0,0E0,0E0,0E0,0E0,0E0,0E0,0E0,0E0,0E0,0E0,0E0,0E0,0E0,0E0,0E0,0E0,0E0,0E0,0E0,0E0,0E0,0E0,0E0,0E0,0E0,0E0,0E0,0E0,0E0],"parents":[2147483647,0,0,1,1,2,2,3,3,4,4,5,5,6,6,7,7,8,8,9,9,10,10,11,11,12,12,13,13,14,14,15,15,16,16,17,17,18,18,19,19,20,20,21,21,24,24,25,25,26,26,27,27,28,28,30,30,32,32,33,33,34,34,35,35,36,36,37,37,38,38,39,39,40,40,42,42,43,43,44,44,46,46,47,47,48,48,49,49,50,50,53,53,54,54,61,61,62,62,63,63,64,64,65,65,66,66,67,67,69,69,70,70,71,71,72,72,73,73,74,74,75,75,76,76,77,77,78,78,79,79,80,80,82,82,83,83,87,87,88,88,89,89,91,91,95,95,99,99,100,100,101,101,103,103,104,104,105,105,106,106,108,108,112,112,113,113,114,114,115,115,116,116,117,117,118,118,121,121,122,122,123,123,124,124,125,125,126,126,127,127,128,128,129,129,131,131,132,132,135,135,136,136,137,137,139,139,140,140,144,144],"right_children":[2,4,6,8,10,12,14,16,18,20,22,24,26,28,30,32,34,36,38,40,42,44,-1,-1,46,48,50,52,54,-1,56,-1,58,60,62,64,66,68,70,72,74,-1,76,78,80,-1,82,84,86,88,90,-1,-1,92,94,-1,-1,-1,-1,-1,-1,96,98,100,102,104,106,108,-1,110,112,114,116,118,120,122,124,126,128,130,132,-1,134,136,-1,-1,-1,138,140,142,-1,144,-1,-1,-1,146,-1,-1,-1,148,150,152,-1,154,156,158,160,-1,162,-1,-1,-1,164,166,168,170,172,174,176,-1,-1,178,180,182,184,186,188,190,192,194,-1,196,198,-1,-1,200,202,204,-1,206,208,-1,-1,-1,210,-1,-1,-1,-1,-1,-1,-1,-1,-1,-1,-1,-1,-1,-1,-1,-1,-1,-1,-1,-1,-1,-1,-1,-1,-1,-1,-1,-1,-1,-1,-1,-1,-1,-1,-1,-1,-1,-1,-1,-1,-1,-1,-1,-1,-1,-1,-1,-1,-1,-1,-1,-1,-1,-1,-1,-1,-1,-1,-1,-1,-1,-1,-1,-1,-1,-1],"split_conditions":[6E0,3.5216405E0,2.8E1,3.321928E0,5E1,6.2E1,4.6002727E0,1E1,2E0,4.332145E0,5E0,5.6E1,4.863936E0,3.5032582E0,3.1E1,2.947703E0,3.0930693E0,1.8E1,3.4406364E0,3.7E1,3.9E1,4E0,3.1887898E-1,-8.584699E-2,4.4112043E0,3E0,1.93E2,9.8E1,3.9E1,-8.71776E-2,4.1E1,4.398736E-2,3.0930693E0,2E0,2.2E1,1.7E1,2.2E1,3E0,3.459148E0,3.6477427E0,4E0,-1.2865871E-1,1E0,4.3986244E0,5.6E1,1.1213397E-1,4.6513834E0,1E0,9.3E1,9E0,1.9E1,1.0968345E-1,-7.913354E-2,1.65E2,1.5E2,1.5646002E-1,2.4310201E-3,-1.7792968E-2,4.952172E-2,1.0828197E-1,1.8125118E-1,1.9E1,2E0,1.6E1,3.459148E0,1.9E1,2.4E1,1.4E1,1.972853E-2,2.1E1,1.6E1,2E0,1E0,4.207977E0,4E1,3E0,4.2E1,4.061977E0,5.056745E0,4.5427485E0,4.702831E0,-1.0403921E-1,7E0,8E0,-1.0502882E-1,-1.251704E-1,1.4035994E-1,1.02E2,4.9985695E0,5.226768E0,-7.626002E-2,1.41E2,6.607527E-2,-2.163131E-2,-1.24848895E-1,1.8E1,1.2950888E-1,-8.496156E-2,1.0666829E-1,3.3371754E0,3.3371754E0,3.4406364E0,-3.4582915E-4,3.4104173E0,3.4104173E0,3.5032582E0,2.9E1,5.2753597E-2,2E1,-2.4893915E-3,-3.626413E-2,-9.244629E-3,1.8E1,1.6E1,2.3E1,3E0,3.6E1,4.013071E0,4.9E1,7.6236494E-2,2.5718227E-1,4.384636E0,4.380062E0,4.3656645E0,3E0,5.1E1,8.4E1,2E0,1.37E2,4.469813E0,-9.029255E-2,5E0,1.78E2,1.333306E-1,-7.2465144E-2,7E0,1.1E1,8E0,2.0748162E-1,1.11E2,1.21E2,1.17553234E-1,2.9828438E-1,-1.10424355E-1,1.5E2,7.715025E-2,1.7172128E-2,2.7756256E-3,4.503792E-2,2.3530802E-2,-1.3663239E-2,4.00756E-2,9.196904E-2,8.22946E-2,-1.7197242E-2,-6.6415355E-2,-2.1791924E-2,9.4004296E-2,-3.5672567E-3,-3.613851E-2,5.8282353E-2,1.7865561E-1,8.366812E-2,1.4871815E-1,6.523421E-2,6.9674335E-2,-3.8032405E-2,1.0002388E-1,-7.630744E-3,-7.416432E-2,1.9752275E-2,-1.285973E-1,-4.673972E-2,-4.456247E-2,-1.8891294E-2,-5.535869E-2,-4.7751167E-3,-7.7588506E-2,-1.1812027E-1,1.18373945E-1,-1.6990423E-2,-3.2177735E-2,-1.10065095E-1,-4.913531E-2,-9.1370165E-2,5.6468276E-3,-5.3700656E-2,1.9459408E-2,-2.4281211E-2,-5.9908874E-2,-1.0851072E-2,4.867712E-2,2.4480812E-1,-6.595305E-2,7.5718634E-2,1.3203064E-1,-1.28534585E-2,1.7699332E-3,2.4809003E-1,1.8593767E-1,-6.1253935E-2,2.5645876E-1,1.9894004E-1,-5.62014E-2,1.3965394E-1,-6.164055E-2,1.04745485E-1,-5.0560948E-2,-9.928117E-2,-1.3393781E-2,-7.385498E-2],"split_indices":[7,8,7,8,0,0,8,0,3,8,3,0,8,8,7,8,8,0,8,0,0,7,0,0,8,3,0,7,7,0,7,0,8,3,0,0,0,3,8,8,3,0,7,8,0,0,8,6,0,7,7,0,0,0,0,0,0,0,0,0,0,0,3,0,8,0,0,0,0,0,0,3,7,8,0,3,0,8,8,8,8,0,7,7,0,0,0,0,8,8,0,0,0,0,0,0,0,0,0,8,8,8,0,8,8,8,0,0,0,0,0,0,0,0,0,3,0,8,0,0,0,8,8,8,7,0,0,7,0,8,0,7,0,0,0,7,7,7,0,0,0,0,0,0,0,0,0,0,0,0,0,0,0,0,0,0,0,0,0,0,0,0,0,0,0,0,0,0,0,0,0,0,0,0,0,0,0,0,0,0,0,0,0,0,0,0,0,0,0,0,0,0,0,0,0,0,0,0,0,0,0,0,0,0,0,0,0,0,0,0,0],"split_type":[0,0,0,0,0,0,0,0,0,0,0,0,0,0,0,0,0,0,0,0,0,0,0,0,0,0,0,0,0,0,0,0,0,0,0,0,0,0,0,0,0,0,0,0,0,0,0,0,0,0,0,0,0,0,0,0,0,0,0,0,0,0,0,0,0,0,0,0,0,0,0,0,0,0,0,0,0,0,0,0,0,0,0,0,0,0,0,0,0,0,0,0,0,0,0,0,0,0,0,0,0,0,0,0,0,0,0,0,0,0,0,0,0,0,0,0,0,0,0,0,0,0,0,0,0,0,0,0,0,0,0,0,0,0,0,0,0,0,0,0,0,0,0,0,0,0,0,0,0,0,0,0,0,0,0,0,0,0,0,0,0,0,0,0,0,0,0,0,0,0,0,0,0,0,0,0,0,0,0,0,0,0,0,0,0,0,0,0,0,0,0,0,0,0,0,0,0,0,0,0,0,0,0,0,0,0,0,0,0,0,0],"sum_hessian":[5.683107E3,4.8441304E3,8.389762E2,3.1293024E2,4.5312E3,8.015852E2,3.7390984E1,1.3914073E2,1.737895E2,2.488387E3,2.0428132E3,1.5112643E1,7.8647253E2,3.0212372E1,7.1786103E0,1.6916306E1,1.2222443E2,1.3875311E2,3.5036392E1,2.1125227E3,3.7586447E2,2.0263666E3,1.6446653E1,6.11659E0,8.996054E0,6.9164966E2,9.482289E1,2.5530376E0,2.7659334E1,1.8806113E0,5.297999E0,6.8636265E0,1.005268E1,3.6222836E1,8.600159E1,7.803459E1,6.071852E1,1.676699E1,1.8269402E1,1.3021647E3,8.1035785E2,1.386483E2,2.3721617E2,1.8610907E3,1.6527596E2,2.3600297E0,6.636024E0,6.8174097E2,9.908699E0,6.815275E1,2.6670141E1,1.178325E0,1.3747126E0,9.108945E0,1.855039E1,3.151699E0,2.1462998E0,6.0550427E0,3.9976373E0,2.8736435E1,7.4864016E0,8.239381E1,3.6077847E0,6.456964E1,1.3464956E1,3.92525E1,2.1466024E1,1.4985359E1,1.7816323E0,4.3417387E0,1.3927662E1,1.6946179E2,1.1327029E3,8.043849E2,5.9729967E0,1.5302824E2,8.418792E1,9.679639E2,8.931268E2,1.8762087E1,1.4651387E2,3.4186223E0,3.2174015E0,6.78878E2,2.8629847E0,6.905262E0,3.0034375E0,2.5988544E1,4.2164207E1,2.5347345E1,1.3227953E0,7.485984E0,1.6229606E0,1.1020033E0,1.7448387E1,7.469785E1,7.6959515E0,1.5978514E0,2.0099335E0,4.679463E1,1.777501E1,9.773795E0,3.691161E0,1.2098593E1,2.7153904E1,9.324725E0,1.2141298E1,1.8126808E0,1.3172678E1,2.978693E0,1.3630459E0,2.3987427E0,1.1528919E1,1.3352045E2,3.5941345E1,1.0223605E3,1.1034242E2,5.7018097E2,2.342039E2,1.5334866E0,4.43951E0,1.5003958E2,2.988663E0,1.7741423E1,6.6446495E1,1.0779766E2,8.6016626E2,8.7890564E2,1.4221159E1,1.2129348E1,6.632739E0,7.9304756E1,6.720911E1,2.0621333E0,1.1552682E0,1.0177692E2,5.771011E2,9.936249E0,1.6052296E1,2.6942562E1,1.5221644E1,2.2544653E0,2.309288E1,4.5720057E0,2.9139783E0,6.967599E1,5.021866E0,1.0016262E1,3.6778366E1,2.9643705E0,1.4810639E1,5.3887944E0,4.3850007E0,2.8004327E0,9.298161E0,7.9455566E0,1.9208347E1,7.780373E0,1.544352E0,8.362323E0,3.7789752E0,8.589563E0,4.5831146E0,1.938215E0,9.590704E0,1.543573E1,1.18084724E2,1.947818E1,1.6463165E1,1.0087991E3,1.3561431E1,1.04084335E2,6.258091E0,1.9488838E2,3.752926E2,2.1882265E2,1.5381253E1,4.453738E1,1.05502205E2,1.1201011E0,1.8685617E0,4.288151E0,1.3453272E1,5.226176E1,1.4184732E1,1.1332233E1,9.646543E1,6.5448425E2,2.0568198E2,7.2565045E2,1.5325519E2,8.741128E0,5.4800305E0,9.191529E0,2.9378185E0,6.8788704E1,1.0516054E1,6.201217E1,5.1969376E0,9.674252E1,5.034394E0,3.6668008E2,2.1042099E2,5.865048E0,4.0712013E0,6.0668044E0,2.0875757E1,5.0269957E0,1.0194649E1,1.7411225E0,1.1728557E0],"tree_param":{"num_deleted":"0","num_feature":"9","num_nodes":"211","size_leaf_vector":"1"}},{"base_weights":[-3.621263E-3,-5.57703E-1,1.6653218E0,-6.842728E-1,7.7120155E-1,2.6677399E0,5.9848636E-1,2.977917E-1,-8.1240743E-1,9.2722577E-1,-9.4690084E-1,2.7574718E0,-8.4133863E-1,-3.1830618E-1,2.0193815E0,6.749971E-1,2.7923007E-2,-1.0558292E0,-5.8018875E-1,1.0091046E0,-1.180451E0,-2.2265097E-2,-9.662787E-2,3.167316E0,2.4849093E0,1.4843251E-1,-1.1977246E0,-4.506399E-1,3.4453067E-1,2.5406642E0,8.905149E-1,6.249439E-1,9.478147E-1,-1.8805267E-1,9.6127295E-1,-6.128974E-1,-1.0953327E0,-3.8786703E-1,-9.2320216E-1,1.3636628E0,6.7328733E-1,-1.4044832E-1,7.259732E-2,3.1841133E0,-7.053905E-2,2.5399258E0,2.0665262E0,-1.305332E-1,-2.029642E-2,4.7778216E-1,-4.7224998E-1,-5.933979E-4,8.855395E-1,2.6412303E0,1.1752938E0,1.0888061E-1,2.682073E-1,6.603579E-1,4.985654E-2,-1.830804E-2,1.0733137E-1,1.4694021E-2,-3.1464717E-1,1.210452E0,1.840209E-2,-5.645846E-1,-1.1595549E-1,-9.401061E-1,-1.118142E0,-7.3143643E-1,-3.0390996E-1,-5.3037953E-1,-1.074701E0,-5.836022E-1,1.5006342E0,-8.829634E-2,9.548183E-1,9.0863444E-2,3.196008E-1,5.924769E-2,2.5474617E0,2.1089123E-1,1.1507501E-2,-9.565227E-2,1.1498418E0,-3.4085134E-1,-5.54626E-1,-3.357103E-1,4.8619363E-1,1.2633597E0,5.109687E-1,2.9592214E0,2.4272704E0,1.5025064E0,-5.8011323E-2,7.958874E-1,-6.353997E-1,4.444464E-2,6.8906754E-2,1.2579259E-2,-8.265066E-3,-2.9362527E-1,-9.4589226E-2,9.757134E-2,1.486591E-1,-3.6277793E-2,-6.6426486E-2,-8.7235546E-1,-1.2431562E-1,-1.1621242E0,-1.0786769E0,-6.861597E-1,-1.1662151E-1,1.2202873E-1,-3.6563763E-1,2.383785E-2,-6.1835074E-1,-1.087181E0,1.9611591E-1,-2.3863696E-1,-8.9796025E-1,7.512056E-1,1.7337037E0,-1.1705376E0,2.0399215E0,1.2673763E0,-8.2584366E-2,9.567898E-2,2.552365E-1,-4.409176E-2,1.828317E0,-4.3393916E-1,5.9376426E-2,-4.9993405E-1,-1.108199E-1,1.11794405E-1,-5.257657E-1,1.4418362E0,1.3268428E-1,-1.0385132E-2,1.4409721E-1,1.176001E-1,3.596178E-1,3.0196613E-1,1.4532936E0,2.1373436E-3,2.460835E0,2.0258522E-1,9.9166864E-1,3.2767144E-1,1.7582232E0,-7.676276E-1,1.0101446E-1,-2.8255373E-2,-6.288918E-2,-9.708035E-2,-8.23806E-2,-1.1307525E-1,-1.252983E-1,-1.0438303E-1,-1.14332296E-1,-8.0636725E-2,-4.6661746E-2,-2.1436628E-2,8.151299E-2,-5.5488575E-2,-2.0584216E-2,1.4292413E-2,-7.335331E-3,-3.8273435E-2,-6.6332504E-2,-9.864615E-2,-1.1541947E-1,-6.5151714E-2,1.7127318E-2,-1.846947E-2,-1.029611E-1,1.1462895E-1,-3.4863867E-2,1.5242873E-1,2.3946707E-1,-1.279099E-1,9.9523775E-3,2.4321543E-1,-9.478761E-2,1.01385705E-1,1.9242562E-1,-1.1563325E-1,1.0806578E-1,6.260574E-2,2.0697775E-1,-5.9569236E-2,-1.0706941E-2,3.6256004E-2,-1.0936951E-1,-5.154484E-2,6.367999E-2,-7.7987485E-2,-8.853865E-3,6.006511E-2,1.7233048E-1,-8.520456E-2,5.6686986E-2,-4.7623243E-2,5.6398302E-2,3.0731082E-2,1.7026569E-1,2.4774757E-1,7.63719E-2,6.7079137E-3,1.5652722E-1,-2.5940448E-2,1.1424281E-1,-1.0898008E-2,2.373683E-1,-9.138875E-2,1.19846396E-1],"categories":[],"categories_nodes":[],"categories_segments":[],"categories_sizes":[],"default_left":[0,0,0,0,0,0,0,0,0,0,0,0,0,0,0,0,0,0,0,0,0,0,0,0,0,0,0,0,0,0,0,0,0,0,0,0,0,0,0,0,0,0,0,0,0,0,0,0,0,0,0,0,0,0,0,0,0,0,0,0,0,0,0,0,0,0,0,0,0,0,0,0,0,0,0,0,0,0,0,0,0,0,0,0,0,0,0,0,0,0,0,0,0,0,0,0,0,0,0,0,0,0,0,0,0,0,0,0,0,0,0,0,0,0,0,0,0,0,0,0,0,0,0,0,0,0,0,0,0,0,0,0,0,0,0,0,0,0,0,0,0,0,0,0,0,0,0,0,0,0,0,0,0,0,0,0,0,0,0,0,0,0,0,0,0,0,0,0,0,0,0,0,0,0,0,0,0,0,0,0,0,0,0,0,0,0,0,0,0,0,0,0,0,0,0,0,0,0,0,0,0,0,0,0,0,0,0,0,0,0,0,0,0,0,0,0,0],"id":2,"left_children":[1,3,5,7,9,11,13,15,17,19,21,23,25,27,29,31,33,35,37,39,41,-1,-1,43,45,-1,47,49,51,53,55,57,59,61,63,65,67,69,71,73,75,-1,-1,77,-1,79,81,-1,-1,83,85,87,89,91,93,95,-1,97,-1,-1,-1,99,101,103,-1,105,-1,107,109,111,113,115,117,119,121,123,125,-1,-1,-1,127,-1,-1,-1,129,131,133,135,137,139,141,143,145,147,-1,149,151,-1,-1,-1,-1,153,-1,-1,-1,-1,-1,155,-1,157,159,161,-1,163,165,167,169,171,-1,173,175,177,179,181,183,185,187,-1,-1,-1,189,191,193,195,-1,-1,197,199,201,-1,-1,-1,203,-1,205,-1,207,-1,209,211,213,215,-1,-1,-1,-1,-1,-1,-1,-1,-1,-1,-1,-1,-1,-1,-1,-1,-1,-1,-1,-1,-1,-1,-1,-1,-1,-1,-1,-1,-1,-1,-1,-1,-1,-1,-1,-1,-1,-1,-1,-1,-1,-1,-1,-1,-1,-1,-1,-1,-1,-1,-1,-1,-1,-1,-1,-1,-1,-1,-1,-1,-1,-1,-1,-1,-1],"loss_changes":[5.196602E3,7.101461E2,1.496294E3,4.8503455E2,9.935249E1,2.296123E2,8.8622015E2,4.5318886E1,1.9204248E2,5.9396057E1,2.2101021E-1,7.078076E1,1.7330477E1,3.6475864E1,1.5470715E2,1.9435654E0,5.2727306E1,2.842212E1,1.1485333E2,3.780255E1,6.6032352E0,0E0,0E0,2.0302979E1,4.5915527E0,0E0,1.536026E0,7.159378E0,1.2972996E1,2.1878174E1,1.1986463E2,3.8619614E-1,4.007738E0,5.4594035E0,9.295963E0,3.00111E0,4.349365E0,3.2105927E1,3.6726013E1,4.280716E1,3.6317337E1,0E0,0E0,4.581787E0,0E0,3.9714355E0,4.3105927E0,0E0,0E0,9.156652E0,3.4720688E0,7.2458887E0,3.1840267E0,4.2922363E0,9.075836E0,3.1585735E1,0E0,4.4864273E-1,0E0,0E0,0E0,9.04212E-1,1.4590006E0,9.502907E-1,0E0,2.356617E0,0E0,3.0567474E0,1.0456543E0,3.5183868E0,2.3769989E1,8.615158E0,1.923059E1,9.841757E-1,2.4401886E1,1.09545876E2,4.013804E1,0E0,0E0,0E0,4.5703125E-1,0E0,0E0,0E0,7.438963E0,4.9782705E0,5.692089E0,7.8555E0,5.9271193E0,3.2561035E0,1.1138256E0,1.3706665E0,8.538269E0,1.2841034E0,0E0,1.3865763E1,7.2446127E0,0E0,0E0,0E0,0E0,2.978363E-1,0E0,0E0,0E0,0E0,0E0,4.15802E-3,0E0,3.3203125E-1,4.105835E-1,4.9314117E0,0E0,2.6980646E1,2.3727852E1,3.01311E-1,1.3597107E0,1.899353E0,0E0,1.2338793E0,3.1881952E-1,1.6335644E1,1.1781403E1,4.4672966E0,2.1112267E1,1.3859634E1,3.8126987E1,0E0,0E0,0E0,1.1239052E-2,5.6446877E0,9.4731455E0,3.671585E0,0E0,0E0,2.5912762E0,9.881306E-2,6.606399E0,0E0,0E0,0E0,2.6391487E0,0E0,7.25358E-1,0E0,1.0706787E0,0E0,4.2397423E0,1.1197499E1,1.2050945E1,9.172358E0,0E0,0E0,0E0,0E0,0E0,0E0,0E0,0E0,0E0,0E0,0E0,0E0,0E0,0E0,0E0,0E0,0E0,0E0,0E0,0E0,0E0,0E0,0E0,0E0,0E0,0E0,0E0,0E0,0E0,0E0,0E0,0E0,0E0,0E0,0E0,0E0,0E0,0E0,0E0,0E0,0E0,0E0,0E0,0E0,0E0,0E0,0E0,0E0,0E0,0E0,0E0,0E0,0E0,0E0,0E0,0E0,0E0,0E0,0E0,0E0,0E0,0E0,0E0,0E0,0E0],"parents":[2147483647,0,0,1,1,2,2,3,3,4,4,5,5,6,6,7,7,8,8,9,9,10,10,11,11,12,12,13,13,14,14,15,15,16,16,17,17,18,18,19,19,20,20,23,23,24,24,26,26,27,27,28,28,29,29,30,30,31,31,32,32,33,33,34,34,35,35,36,36,37,37,38,38,39,39,40,40,43,43,45,45,46,46,49,49,50,50,51,51,52,52,53,53,54,54,55,55,57,57,61,61,62,62,63,63,65,65,67,67,68,68,69,69,70,70,71,71,72,72,73,73,74,74,75,75,76,76,80,80,84,84,85,85,86,86,87,87,88,88,89,89,90,90,91,91,92,92,93,93,95,95,96,96,101,101,107,107,109,109,110,110,111,111,113,113,114,114,115,115,116,116,117,117,119,119,120,120,121,121,122,122,123,123,124,124,125,125,126,126,130,130,131,131,132,132,133,133,136,136,137,137,138,138,142,142,144,144,146,146,148,148,149,149,150,150,151,151],"right_children":[2,4,6,8,10,12,14,16,18,20,22,24,26,28,30,32,34,36,38,40,42,-1,-1,44,46,-1,48,50,52,54,56,58,60,62,64,66,68,70,72,74,76,-1,-1,78,-1,80,82,-1,-1,84,86,88,90,92,94,96,-1,98,-1,-1,-1,100,102,104,-1,106,-1,108,110,112,114,116,118,120,122,124,126,-1,-1,-1,128,-1,-1,-1,130,132,134,136,138,140,142,144,146,148,-1,150,152,-1,-1,-1,-1,154,-1,-1,-1,-1,-1,156,-1,158,160,162,-1,164,166,168,170,172,-1,174,176,178,180,182,184,186,188,-1,-1,-1,190,192,194,196,-1,-1,198,200,202,-1,-1,-1,204,-1,206,-1,208,-1,210,212,214,216,-1,-1,-1,-1,-1,-1,-1,-1,-1,-1,-1,-1,-1,-1,-1,-1,-1,-1,-1,-1,-1,-1,-1,-1,-1,-1,-1,-1,-1,-1,-1,-1,-1,-1,-1,-1,-1,-1,-1,-1,-1,-1,-1,-1,-1,-1,-1,-1,-1,-1,-1,-1,-1,-1,-1,-1,-1,-1,-1,-1,-1,-1,-1,-1,-1],"split_conditions":[3E0,6E0,2E0,2.1E1,2.8E1,8E0,4E0,1.6E1,2E0,2E0,1.16E2,3E0,1.02E2,8.5E1,3E0,2E0,2E0,2.4E1,2E0,9.1E1,1.65E2,-2.2265097E-2,-9.662787E-2,1E0,4E0,1.4843251E-1,1.65E2,2.5E1,5E0,1.65E2,5E0,1.5E1,1.2E1,1.8E1,2E1,1E0,2.9E1,3.7E1,3.3E1,6.2E1,2E0,-1.4044832E-1,7.259732E-2,2.8E1,-7.053905E-2,4E0,2.1E2,-1.305332E-1,-2.029642E-2,2E1,4.8E1,1.08E2,1.11E2,1E0,5E0,1E0,2.682073E-1,1E1,4.985654E-2,-1.830804E-2,1.0733137E-1,1.7E1,1E0,1.9E1,1.840209E-2,2.2E1,-1.1595549E-1,1E0,4.7E1,1E0,4.1E1,2.3E1,1E0,7E0,8E0,2.7E1,1.5E1,9.0863444E-2,3.196008E-1,5.924769E-2,5.7E1,2.1089123E-1,1.1507501E-2,-9.565227E-2,3E0,3E0,3E0,8.6E1,1.1E2,8.7E1,7E0,6E0,4.7E1,1E1,-5.8011323E-2,4E0,6E0,4.444464E-2,6.8906754E-2,1.2579259E-2,-8.265066E-3,2E0,-9.4589226E-2,9.757134E-2,1.486591E-1,-3.6277793E-2,-6.6426486E-2,2.5E1,-1.2431562E-1,1E0,8.7E1,3.3E1,-1.1662151E-1,4E1,5.7E1,2.2E1,2.5E1,4.6E1,1.9611591E-1,5.7E1,5E1,8.3E1,2.1E1,1.65E2,1E2,1.3E2,1.28E2,9.567898E-2,2.552365E-1,-4.409176E-2,2.2E1,4.3E1,2E0,8E0,-1.108199E-1,1.11794405E-1,9.8E1,3E0,1.16E2,-1.0385132E-2,1.4409721E-1,1.176001E-1,1E1,3.0196613E-1,7.4E1,2.1373436E-3,7E0,2.0258522E-1,1.1E1,6.6E1,3.8E1,1.37E2,1.0101446E-1,-2.8255373E-2,-6.288918E-2,-9.708035E-2,-8.23806E-2,-1.1307525E-1,-1.252983E-1,-1.0438303E-1,-1.14332296E-1,-8.0636725E-2,-4.6661746E-2,-2.1436628E-2,8.151299E-2,-5.5488575E-2,-2.0584216E-2,1.4292413E-2,-7.335331E-3,-3.8273435E-2,-6.6332504E-2,-9.864615E-2,-1.1541947E-1,-6.5151714E-2,1.7127318E-2,-1.846947E-2,-1.029611E-1,1.1462895E-1,-3.4863867E-2,1.5242873E-1,2.3946707E-1,-1.279099E-1,9.9523775E-3,2.4321543E-1,-9.478761E-2,1.01385705E-1,1.9242562E-1,-1.1563325E-1,1.0806578E-1,6.260574E-2,2.0697775E-1,-5.9569236E-2,-1.0706941E-2,3.6256004E-2,-1.0936951E-1,-5.154484E-2,6.367999E-2,-7.7987485E-2,-8.853865E-3,6.006511E-2,1.7233048E-1,-8.520456E-2,5.6686986E-2,-4.7623243E-2,5.6398302E-2,3.0731082E-2,1.7026569E-1,2.4774757E-1,7.63719E-2,6.7079137E-3,1.5652722E-1,-2.5940448E-2,1.1424281E-1,-1.0898008E-2,2.373683E-1,-9.138875E-2,1.19846396E-1],"split_indices":[1,7,3,0,7,1,1,0,1,3,0,7,0,0,3,1,3,0,3,0,0,0,0,6,1,0,0,0,7,0,3,0,0,0,0,7,0,0,0,0,1,0,0,0,0,7,0,0,0,0,0,0,0,7,1,7,0,0,0,0,0,0,7,0,0,0,0,7,0,7,0,0,6,7,7,7,7,0,0,0,0,0,0,0,3,3,3,0,0,0,7,1,0,7,0,3,1,0,0,0,0,1,0,0,0,0,0,0,0,7,0,0,0,0,0,0,0,0,0,0,0,0,7,0,0,0,0,0,0,0,0,0,7,7,0,0,0,3,0,0,0,0,7,0,0,0,1,0,7,0,0,0,0,0,0,0,0,0,0,0,0,0,0,0,0,0,0,0,0,0,0,0,0,0,0,0,0,0,0,0,0,0,0,0,0,0,0,0,0,0,0,0,0,0,0,0,0,0,0,0,0,0,0,0,0,0,0,0,0,0,0,0,0,0,0,0,0],"split_type":[0,0,0,0,0,0,0,0,0,0,0,0,0,0,0,0,0,0,0,0,0,0,0,0,0,0,0,0,0,0,0,0,0,0,0,0,0,0,0,0,0,0,0,0,0,0,0,0,0,0,0,0,0,0,0,0,0,0,0,0,0,0,0,0,0,0,0,0,0,0,0,0,0,0,0,0,0,0,0,0,0,0,0,0,0,0,0,0,0,0,0,0,0,0,0,0,0,0,0,0,0,0,0,0,0,0,0,0,0,0,0,0,0,0,0,0,0,0,0,0,0,0,0,0,0,0,0,0,0,0,0,0,0,0,0,0,0,0,0,0,0,0,0,0,0,0,0,0,0,0,0,0,0,0,0,0,0,0,0,0,0,0,0,0,0,0,0,0,0,0,0,0,0,0,0,0,0,0,0,0,0,0,0,0,0,0,0,0,0,0,0,0,0,0,0,0,0,0,0,0,0,0,0,0,0,0,0,0,0,0,0,0,0,0,0,0,0],"sum_hessian":[5.617579E3,4.2179155E3,1.3996636E3,3.8515635E3,3.6635217E2,7.208444E2,6.788191E2,4.443787E2,3.4071848E3,3.3627472E2,3.0077448E1,7.030799E2,1.7764517E1,4.1307202E2,2.657471E2,1.8470648E2,2.596722E2,1.661735E3,1.7454497E3,3.2420142E2,1.20733185E1,1.1092439E0,2.8968204E1,2.7657773E2,4.265022E2,1.939966E0,1.5824552E1,3.445947E2,6.847733E1,1.8094194E2,8.480514E1,1.5885284E2,2.5853626E1,2.1152435E2,4.8147877E1,1.3742122E2,1.5243137E3,1.1197539E3,6.256959E2,1.562115E2,1.6798991E2,1.1039329E1,1.0339895E0,2.755603E2,1.0174041E0,3.724543E2,5.404788E1,1.399811E1,1.8264414E0,7.3582144E0,3.3723648E2,4.241718E1,2.6060156E1,1.6765863E2,1.3283315E1,5.978324E1,2.50219E1,1.2078192E2,3.807093E1,2.5366437E0,2.3316982E1,8.1646996E1,1.2987735E2,3.603733E1,1.2110543E1,1.2813007E2,9.291161E0,2.0069746E2,1.3236163E3,2.1838123E2,9.013726E2,1.7540012E2,4.502958E2,1.0051585E1,1.4615991E2,4.5524815E1,1.22465096E2,1.8353926E0,2.737249E2,1.7426379E0,3.7071167E2,5.2819923E1,1.2279526E0,2.2126732E0,5.145541E0,1.3193063E2,2.0530583E2,2.5306131E1,1.7111046E1,1.1792519E1,1.4267637E1,6.2274475E1,1.05384155E2,1.1317729E1,1.9655852E0,3.105169E1,2.8731552E1,1.610966E1,1.0467226E2,3.799333E1,4.3653667E1,1.27109474E2,2.7678835E0,2.1929262E1,1.4108069E1,4.3897404E1,8.423266E1,1.6719707E2,3.35004E1,6.125301E2,7.110862E2,2.0011948E2,1.8261755E1,1.1396997E2,7.8740265E2,2.412733E1,1.512728E2,4.4909152E2,1.2042637E0,5.631216E0,4.4203696E0,3.567405E1,1.1048586E2,3.0476763E1,1.5048051E1,9.3940254E1,2.8524843E1,1.7419102E0,3.6896976E2,1.6431444E0,3.502397E0,1.0696722E2,2.4963427E1,1.885778E2,1.6728031E1,2.3615355E0,2.2944595E1,3.7891612E0,1.3321885E1,1.4035649E0,1.0388953E1,1.389996E0,1.2877642E1,5.890516E1,3.3693166E0,1.4724994E0,1.0391166E2,4.125485E0,7.1922445E0,2.1790304E1,9.261384E0,2.7088373E1,1.6431785E0,1.2482998E2,2.2794964E0,4.8946907E1,1.1825016E2,4.6531256E2,1.4721753E2,4.731738E2,2.3791243E2,1.2758756E2,7.2531906E1,7.719451E1,3.677546E1,3.5934848E2,4.2805417E2,1.063093E1,1.3496401E1,2.5770975E1,1.25501816E2,1.8570435E2,2.6338718E2,2.5118012E0,3.1194148E0,1.0631704E0,3.357199E0,2.621494E1,9.459108E0,8.641338E1,2.407248E1,2.8070278E1,2.406485E0,1.3466203E1,1.5818477E0,6.9615845E1,2.4324415E1,1.4836098E1,1.3688745E1,1.1866621E0,2.3157349E0,7.1006744E1,3.596047E1,2.0309029E1,4.6543975E0,1.865779E2,1.9999008E0,1.4015396E1,8.9292E0,1.7357528E0,2.0534084E0,3.7819808E0,9.539905E0,2.2686408E0,1.0609E1,1.0010835E0,2.368233E0,1.0244733E2,1.4643346E0,3.1812854E0,4.010959E0,1.3060865E1,8.729439E0,2.4999323E0,6.7614517E0,2.5710886E1,1.3774872E0],"tree_param":{"num_deleted":"0","num_feature":"9","num_nodes":"217","size_leaf_vector":"1"}},{"base_weights":[-6.9370726E-3,-5.177484E-1,1.4364645E0,-6.379101E-1,6.8706477E-1,2.195232E0,5.403034E-1,2.5255746E-1,-7.64881E-1,8.316975E-1,-9.230785E-1,2.2681794E0,-7.852388E-1,-2.5209105E-1,1.712867E0,7.019935E-1,5.1256076E-2,-1.0088341E0,-5.3165156E-1,1.906292E0,6.135282E-1,3.0707225E-1,-1.0293081E0,2.6228945E0,2.10083E0,1.5618515E-1,-1.2787645E-1,-3.254268E-1,8.7712693E-1,2.130611E0,7.586793E-1,6.398336E-1,1.4441175E0,-1.1418068E-1,6.9190997E-1,-5.732005E-1,-1.0562646E0,-3.4477243E-1,-8.857008E-1,1.9711983E-1,-7.735296E-2,-9.7101176E-1,9.07876E-1,1.111475E-1,-6.790099E-2,-3.569127E-1,-1.1391991E0,4.3183066E-2,2.6331637E0,2.1187449E-1,1.6895101E0,-3.7709993E-1,2.1969244E-1,1.5497632E0,-4.788712E-1,2.2145069E0,8.4304005E-1,4.973331E-2,2.300831E-1,5.778298E-1,9.2268425E-1,1.7829847E-1,8.0756235E-1,-1.9155392E-1,5.514667E-1,6.1477125E-1,1.2842804E0,-6.302008E-1,5.089364E-1,-9.974918E-1,-1.1574292E-1,-5.0361323E-1,-1.7645603E-1,-6.308277E-2,-9.4711417E-1,-4.6227494E-1,-1.3275135E0,1.0145642E0,-1.1146936E0,-7.1137744E-1,3.2830466E-2,-1.1727768E-1,-4.681576E-2,2.6905578E-1,2.047358E0,2.0511599E0,4.7392792E-1,-1.5047348E-1,-6.188963E-1,6.93945E-1,-4.4231248E-1,-3.058422E-2,1.7958485E0,-1.0628947E0,1.3462144E-1,2.4580429E0,2.0698404E0,1.7395888E-1,-3.0482012E-1,6.004556E-1,-5.235203E-1,6.10839E-2,3.828577E-2,1.306958E-1,6.4108247E-1,1.6062023E-2,1.486629E-1,2.2327123E-2,-4.736645E-1,3.6334518E-1,1.20671056E-1,7.267194E-1,3.1770524E-1,1.6692697E-1,4.383825E-1,-5.3704405E-1,-8.071205E-2,1.2310968E-1,1.5451269E-1,-1.0813528E0,-9.130859E-1,-5.273212E-1,1.1466117E0,-8.630772E-2,-9.3386143E-1,-2.9916167E-1,1.5983193E-1,-7.8662694E-1,-1.061915E0,-4.0132735E-2,-1.2481916E-1,-1.3595547E-1,-4.0352847E-2,1.1723543E0,-2.5208804E-1,-1.3381533E-1,5.2315284E-2,-1.7103568E-2,-8.466484E-2,7.644004E-2,2.1186566E-1,2.1340378E-1,2.5733013E-2,7.133805E-1,-3.8455937E-2,-3.601862E-1,3.5072455E-1,-7.608182E-1,-2.151302E-1,1.8340994E-1,6.002999E-2,-7.837887E-1,1.360943E-1,1.897004E-1,7.07242E-2,-2.9798716E-2,-1.23794675E-1,2.5161467E0,2.5497524E-2,1.4302182E0,2.1908188E-1,6.835307E-2,-8.791032E-2,2.1250857E-1,1.2914678E0,-1.0995343E0,4.00885E-1,3.7366062E-4,8.297114E-2,1.1414398E-2,-1.6261615E-2,-3.938392E-2,-5.666979E-2,8.917491E-2,1.5149124E-2,3.7126556E-2,7.893922E-2,-1.709698E-2,6.1522335E-2,8.5495337E-4,7.315267E-2,-5.8351316E-2,-9.978282E-3,3.589752E-2,-6.5742075E-2,-1.04352795E-1,-1.2093524E-1,-7.95443E-2,-9.863596E-2,-3.9883863E-2,-7.401764E-2,1.768599E-1,6.298733E-2,1.4087479E-3,-5.797524E-2,-6.3306235E-2,-1.0809282E-1,3.4333596E-3,-5.0381478E-2,-8.635249E-2,-5.1053654E-2,-1.0699409E-1,3.9972674E-2,-4.0180918E-2,8.225501E-2,1.4075354E-1,3.4032505E-2,-9.9356696E-2,1.02186896E-1,6.4319745E-3,1.2483064E-1,-4.866557E-2,1.9938465E-2,1.9320384E-1,2.76375E-2,-7.933341E-2,-8.215207E-3,-3.8372073E-2,5.6131948E-2,-1.715612E-2,1.341704E-1,3.074705E-2,-1.0490181E-1,7.3554136E-2,-6.271273E-2,1.0815938E-1,2.567867E-1,6.144023E-2,2.2178577E-1,-5.4864902E-2,7.649719E-2,-4.5956682E-2,1.647285E-1,-1.1782687E-1,-3.7554536E-2,1.7778645E-1,-4.89901E-2],"categories":[],"categories_nodes":[],"categories_segments":[],"categories_sizes":[],"default_left":[0,0,0,0,0,0,0,0,0,0,0,0,0,0,0,0,0,0,0,0,0,0,0,0,0,0,0,0,0,0,0,0,0,0,0,0,0,0,0,0,0,0,0,0,0,0,0,0,0,0,0,0,0,0,0,0,0,0,0,0,0,0,0,0,0,0,0,0,0,0,0,0,0,0,0,0,0,0,0,0,0,0,0,0,0,0,0,0,0,0,0,0,0,0,0,0,0,0,0,0,0,0,0,0,0,0,0,0,0,0,0,0,0,0,0,0,0,0,0,0,0,0,0,0,0,0,0,0,0,0,0,0,0,0,0,0,0,0,0,0,0,0,0,0,0,0,0,0,0,0,0,0,0,0,0,0,0,0,0,0,0,0,0,0,0,0,0,0,0,0,0,0,0,0,0,0,0,0,0,0,0,0,0,0,0,0,0,0,0,0,0,0,0,0,0,0,0,0,0,0,0,0,0,0,0,0,0,0,0,0,0,0,0,0,0,0,0,0,0,0,0,0,0,0,0,0,0,0,0,0,0,0,0,0,0,0,0],"id":3,"left_children":[1,3,5,7,9,11,13,15,17,19,21,23,25,27,29,31,33,35,37,39,41,43,45,47,49,-1,-1,51,53,55,57,59,61,63,65,67,69,71,73,-1,-1,75,77,-1,-1,79,81,-1,83,-1,85,87,89,91,93,95,97,99,-1,101,103,-1,105,107,109,111,113,115,117,119,-1,121,123,125,127,129,131,133,135,137,-1,-1,-1,-1,139,141,143,145,147,149,151,-1,153,155,-1,157,159,-1,161,163,165,-1,-1,-1,167,-1,-1,169,171,173,-1,175,177,-1,179,181,-1,183,-1,185,187,189,191,193,195,197,-1,199,201,203,-1,-1,-1,205,207,-1,-1,-1,-1,-1,-1,-1,-1,209,-1,211,213,215,217,-1,219,221,223,-1,-1,-1,-1,225,-1,227,-1,-1,-1,229,231,233,235,-1,-1,-1,-1,-1,-1,-1,-1,-1,-1,-1,-1,-1,-1,-1,-1,-1,-1,-1,-1,-1,-1,-1,-1,-1,-1,-1,-1,-1,-1,-1,-1,-1,-1,-1,-1,-1,-1,-1,-1,-1,-1,-1,-1,-1,-1,-1,-1,-1,-1,-1,-1,-1,-1,-1,-1,-1,-1,-1,-1,-1,-1,-1,-1,-1,-1,-1,-1,-1,-1],"loss_changes":[4.0935498E3,5.941184E2,9.856299E2,4.2185217E2,8.748753E1,1.7257129E2,6.1989215E2,4.2138588E1,1.8518921E2,7.906033E1,4.388853E0,4.002173E1,2.4596308E1,3.330436E1,1.05603455E2,5.724556E0,3.4316837E1,3.2337036E1,1.1024963E2,1.1487595E1,1.3424377E2,3.3307679E0,1.7302189E0,4.3045654E0,2.9760742E-1,0E0,0E0,1.0649666E1,2.316684E1,1.8282227E1,9.1130035E1,1.8306236E0,7.912655E-1,1.33727045E1,2.2463913E0,1.0111427E1,7.387085E0,2.9194153E1,2.907129E1,0E0,0E0,7.598213E0,5.327687E1,0E0,0E0,1.5739322E0,7.4386597E-4,0E0,2.5783691E0,0E0,1.0852287E1,1.8703625E1,1.070298E1,8.1614E0,1.09343195E1,1.0603638E0,1.3934571E1,1.8687082E1,0E0,4.948311E-1,1.603159E0,0E0,2.1428585E0,1.3979709E1,2.899848E0,1.7878475E0,1.4621038E0,2.0590477E0,3.2062716E0,5.4958496E0,0E0,2.2629776E1,3.633389E1,1.661003E1,9.049133E0,6.648343E0,2.23732E-1,4.627913E1,5.306058E0,1.4411855E-1,0E0,0E0,0E0,0E0,7.263794E-1,2.4880447E0,1.8094774E0,1.8876139E1,9.3277855E0,1.4114889E1,2.957051E0,0E0,2.9512405E-1,6.103487E-1,0E0,7.0002136E0,5.8277283E0,0E0,4.3259473E0,7.8072844E0,1.5908517E1,0E0,0E0,0E0,1.7979155E0,0E0,0E0,2.2708404E0,5.185528E-1,2.3805296E0,0E0,6.7178535E-1,2.7790802E0,0E0,4.301209E-1,2.015482E0,0E0,1.5757289E0,0E0,9.361572E-1,3.205719E0,1.490152E1,1.5499096E0,2.367301E1,1.8205986E0,2.5326533E0,0E0,4.3910065E0,4.0632324E0,4.751131E0,0E0,0E0,0E0,3.9588715E1,2.5867056E1,0E0,0E0,0E0,0E0,0E0,0E0,0E0,0E0,2.0686684E0,0E0,9.032108E0,5.712439E0,2.6306534E0,6.036936E0,0E0,4.291534E0,2.991755E0,3.3020744E0,0E0,0E0,0E0,0E0,1.5297546E0,0E0,1.232407E1,0E0,0E0,0E0,9.042083E0,7.387924E0,5.929184E-1,1.5448789E1,0E0,0E0,0E0,0E0,0E0,0E0,0E0,0E0,0E0,0E0,0E0,0E0,0E0,0E0,0E0,0E0,0E0,0E0,0E0,0E0,0E0,0E0,0E0,0E0,0E0,0E0,0E0,0E0,0E0,0E0,0E0,0E0,0E0,0E0,0E0,0E0,0E0,0E0,0E0,0E0,0E0,0E0,0E0,0E0,0E0,0E0,0E0,0E0,0E0,0E0,0E0,0E0,0E0,0E0,0E0,0E0,0E0,0E0,0E0,0E0,0E0,0E0,0E0,0E0,0E0,0E0,0E0,0E0,0E0,0E0],"parents":[2147483647,0,0,1,1,2,2,3,3,4,4,5,5,6,6,7,7,8,8,9,9,10,10,11,11,12,12,13,13,14,14,15,15,16,16,17,17,18,18,19,19,20,20,21,21,22,22,23,23,24,24,27,27,28,28,29,29,30,30,31,31,32,32,33,33,34,34,35,35,36,36,37,37,38,38,41,41,42,42,45,45,46,46,48,48,50,50,51,51,52,52,53,53,54,54,55,55,56,56,57,57,59,59,60,60,62,62,63,63,64,64,65,65,66,66,67,67,68,68,69,69,71,71,72,72,73,73,74,74,75,75,76,76,77,77,78,78,79,79,84,84,85,85,86,86,87,87,88,88,89,89,90,90,92,92,93,93,95,95,96,96,98,98,99,99,100,100,104,104,107,107,108,108,109,109,111,111,112,112,114,114,115,115,117,117,119,119,120,120,121,121,122,122,123,123,124,124,125,125,127,127,128,128,129,129,133,133,134,134,143,143,145,145,146,146,147,147,148,148,150,150,151,151,152,152,157,157,159,159,163,163,164,164,165,165,166,166],"right_children":[2,4,6,8,10,12,14,16,18,20,22,24,26,28,30,32,34,36,38,40,42,44,46,48,50,-1,-1,52,54,56,58,60,62,64,66,68,70,72,74,-1,-1,76,78,-1,-1,80,82,-1,84,-1,86,88,90,92,94,96,98,100,-1,102,104,-1,106,108,110,112,114,116,118,120,-1,122,124,126,128,130,132,134,136,138,-1,-1,-1,-1,140,142,144,146,148,150,152,-1,154,156,-1,158,160,-1,162,164,166,-1,-1,-1,168,-1,-1,170,172,174,-1,176,178,-1,180,182,-1,184,-1,186,188,190,192,194,196,198,-1,200,202,204,-1,-1,-1,206,208,-1,-1,-1,-1,-1,-1,-1,-1,210,-1,212,214,216,218,-1,220,222,224,-1,-1,-1,-1,226,-1,228,-1,-1,-1,230,232,234,236,-1,-1,-1,-1,-1,-1,-1,-1,-1,-1,-1,-1,-1,-1,-1,-1,-1,-1,-1,-1,-1,-1,-1,-1,-1,-1,-1,-1,-1,-1,-1,-1,-1,-1,-1,-1,-1,-1,-1,-1,-1,-1,-1,-1,-1,-1,-1,-1,-1,-1,-1,-1,-1,-1,-1,-1,-1,-1,-1,-1,-1,-1,-1,-1,-1,-1,-1,-1,-1,-1],"split_conditions":[3E0,6E0,2E0,3.6385305E0,2.8E1,8E0,4E0,3.321928E0,2E0,4.0168757E0,3.5032582E0,4.4067984E0,4.814111E0,8E0,3E0,1E0,2E0,3.7843685E0,2E0,1E0,2E0,5E0,3.3E1,3.5216405E0,5E0,1.5618515E-1,-1.2787645E-1,4.6513834E0,4.7720294E0,4.912215E0,5E0,2E0,3.180833E0,1E0,1E0,2E0,4.361864E0,1E0,3.7464395E0,1.9711983E-1,-7.735296E-2,9E0,2E0,1.111475E-1,-6.790099E-2,2E0,7E0,4.3183066E-2,4E0,2.1187449E-1,4.79805E0,4.308271E0,2E0,4.487965E0,5E0,4.39489E0,1E0,1E0,2.300831E-1,3.2639334E0,3.0930693E0,1.7829847E-1,3.2639334E0,3.5216405E0,3.5932696E0,3.5766177E0,3.5464394E0,3.7345216E0,3.7647352E0,1E0,-1.1574292E-1,5.056745E0,1E1,1E0,4.10141E0,4.709768E0,2.6E1,1.7E1,4.814111E0,3.950344E0,3.2830466E-2,-1.1727768E-1,-4.681576E-2,2.6905578E-1,3.9897835E0,4E0,2E0,1E0,2E0,1E0,4.829391E0,-3.058422E-2,1.3E1,4.846492E0,1.3462144E-1,6E0,3E0,1.7395888E-1,9E0,4E0,4.61969E0,6.10839E-2,3.828577E-2,1.306958E-1,3.180833E0,1.6062023E-2,1.486629E-1,3.459148E0,3.5932696E0,3.4406364E0,1.20671056E-1,3.3787835E0,3.5932696E0,1.6692697E-1,3.6163485E0,1E0,-8.071205E-2,3.7464395E0,1.5451269E-1,1E0,4.10141E0,4.263314E0,4E0,4.5757284E0,4.354223E0,3.6841838E0,1.5983193E-1,1E0,4.9985695E0,3E0,-1.2481916E-1,-1.3595547E-1,-4.0352847E-2,4.7506127E0,1E0,-1.3381533E-1,5.2315284E-2,-1.7103568E-2,-8.466484E-2,7.644004E-2,2.1186566E-1,2.1340378E-1,2.5733013E-2,1E0,-3.8455937E-2,3E0,3.7843685E0,4.614299E0,1E0,1.8340994E-1,5.226768E0,4.66917E0,4.863936E0,1.897004E-1,7.07242E-2,-2.9798716E-2,-1.23794675E-1,3.957294E0,2.5497524E-2,2E0,2.1908188E-1,6.835307E-2,-8.791032E-2,4.2268014E0,3.8164027E0,5E0,6E0,3.7366062E-4,8.297114E-2,1.1414398E-2,-1.6261615E-2,-3.938392E-2,-5.666979E-2,8.917491E-2,1.5149124E-2,3.7126556E-2,7.893922E-2,-1.709698E-2,6.1522335E-2,8.5495337E-4,7.315267E-2,-5.8351316E-2,-9.978282E-3,3.589752E-2,-6.5742075E-2,-1.04352795E-1,-1.2093524E-1,-7.95443E-2,-9.863596E-2,-3.9883863E-2,-7.401764E-2,1.768599E-1,6.298733E-2,1.4087479E-3,-5.797524E-2,-6.3306235E-2,-1.0809282E-1,3.4333596E-3,-5.0381478E-2,-8.635249E-2,-5.1053654E-2,-1.0699409E-1,3.9972674E-2,-4.0180918E-2,8.225501E-2,1.4075354E-1,3.4032505E-2,-9.9356696E-2,1.02186896E-1,6.4319745E-3,1.2483064E-1,-4.866557E-2,1.9938465E-2,1.9320384E-1,2.76375E-2,-7.933341E-2,-8.215207E-3,-3.8372073E-2,5.6131948E-2,-1.715612E-2,1.341704E-1,3.074705E-2,-1.0490181E-1,7.3554136E-2,-6.271273E-2,1.0815938E-1,2.567867E-1,6.144023E-2,2.2178577E-1,-5.4864902E-2,7.649719E-2,-4.5956682E-2,1.647285E-1,-1.1782687E-1,-3.7554536E-2,1.7778645E-1,-4.89901E-2],"split_indices":[1,7,3,8,7,1,1,8,1,8,8,8,8,7,3,2,3,8,3,2,1,2,7,8,1,0,0,8,8,8,3,3,8,2,2,2,8,2,8,0,0,7,3,0,0,1,2,0,1,0,8,8,7,8,2,8,2,7,0,8,8,0,8,8,8,8,8,8,8,2,0,8,2,2,8,8,7,7,8,8,0,0,0,0,8,2,2,2,7,2,8,0,7,8,0,1,7,0,7,3,8,0,0,0,8,0,0,8,8,8,0,8,8,0,8,2,0,8,0,7,8,8,7,8,8,8,0,2,8,2,0,0,0,8,2,0,0,0,0,0,0,0,0,2,0,3,8,8,2,0,8,8,8,0,0,0,0,8,0,2,0,0,0,8,8,7,7,0,0,0,0,0,0,0,0,0,0,0,0,0,0,0,0,0,0,0,0,0,0,0,0,0,0,0,0,0,0,0,0,0,0,0,0,0,0,0,0,0,0,0,0,0,0,0,0,0,0,0,0,0,0,0,0,0,0,0,0,0,0,0,0,0,0,0,0,0,0],"split_type":[0,0,0,0,0,0,0,0,0,0,0,0,0,0,0,0,0,0,0,0,0,0,0,0,0,0,0,0,0,0,0,0,0,0,0,0,0,0,0,0,0,0,0,0,0,0,0,0,0,0,0,0,0,0,0,0,0,0,0,0,0,0,0,0,0,0,0,0,0,0,0,0,0,0,0,0,0,0,0,0,0,0,0,0,0,0,0,0,0,0,0,0,0,0,0,0,0,0,0,0,0,0,0,0,0,0,0,0,0,0,0,0,0,0,0,0,0,0,0,0,0,0,0,0,0,0,0,0,0,0,0,0,0,0,0,0,0,0,0,0,0,0,0,0,0,0,0,0,0,0,0,0,0,0,0,0,0,0,0,0,0,0,0,0,0,0,0,0,0,0,0,0,0,0,0,0,0,0,0,0,0,0,0,0,0,0,0,0,0,0,0,0,0,0,0,0,0,0,0,0,0,0,0,0,0,0,0,0,0,0,0,0,0,0,0,0,0,0,0,0,0,0,0,0,0,0,0,0,0,0,0,0,0,0,0,0,0],"sum_hessian":[5.5500283E3,4.0997812E3,1.4502472E3,3.7284006E3,3.7138058E2,7.8453906E2,6.6570807E2,4.65161E2,3.2632397E3,3.4121414E2,3.0166445E1,7.6602936E2,1.8509718E1,3.9772125E2,2.6798685E2,1.431251E2,3.2203592E2,1.5933271E3,1.6699125E3,5.6278145E1,2.8493597E2,2.247658E0,2.7918787E1,2.4084946E2,5.2517993E2,2.8397696E0,1.5669949E1,3.7413528E2,2.3585966E1,1.8552916E2,8.245768E1,1.3378177E2,9.343329E0,2.565965E2,6.543942E1,1.5772824E2,1.4355989E3,1.0942854E3,5.75627E2,5.5205475E1,1.0726693E0,4.4278126E1,2.4065787E2,1.1678303E0,1.0798277E0,4.5185843E0,2.3400202E1,1.3243735E0,2.3952509E2,4.9928278E2,2.589714E1,3.420224E2,3.2112885E1,1.567003E1,7.915937E0,1.7350404E2,1.2025114E1,5.7196156E1,2.5261522E1,1.1222398E2,2.155779E1,4.922089E0,4.4212403E0,2.3051431E2,2.6082197E1,5.9702724E1,5.7366934E0,1.5023256E2,7.4956903E0,9.1492303E2,5.206759E2,5.6196497E2,5.323205E2,4.012945E1,5.3549756E2,1.9190088E1,2.5088036E1,2.2907292E2,1.1584943E1,2.9528759E0,1.5657084E0,2.1573027E1,1.8271747E0,2.1487943E2,2.4645666E1,1.9429306E1,6.467833E0,1.7738686E2,1.6463554E2,1.8681458E1,1.3431425E1,1.8063585E0,1.3863671E1,6.31331E0,1.6026267E0,5.86983E1,1.1480575E2,6.46222E0,5.5628934E0,2.9147156E1,2.8049E1,9.415104E1,1.807294E1,7.577027E0,1.3980763E1,2.8974192E0,1.5238209E0,1.3163591E2,9.8878395E1,2.1472055E1,4.610141E0,4.231149E1,1.7391235E1,3.273481E0,2.4632123E0,1.0105681E2,4.9175743E1,6.2771835E0,1.2185069E0,4.5301794E2,4.6190512E2,5.5467664E2,7.2883096E0,4.7669675E2,5.5623707E1,3.5854584E1,4.2748656E0,2.2658807E2,3.089095E2,1.3168116E1,6.0219727E0,2.3791605E1,1.296432E0,2.0376396E2,2.5308956E1,1.0355121E1,1.229822E0,1.0445995E0,1.9082764E0,1.914629E0,2.2731037E1,1.8390003E1,1.0393034E0,5.189409E0,1.2784239E0,1.25257576E2,5.212928E1,1.2116302E2,4.3472527E1,5.998791E0,1.2682666E1,8.222182E0,5.2092433E0,1.2005499E1,1.8581725E0,1.679005E0,4.6343055E0,5.705151E1,1.6467891E0,2.0300016E1,9.450573E1,1.9745047E0,3.5883887E0,1.95045E1,9.642655E0,1.7164213E1,1.0884788E1,3.4257004E0,1.0555063E1,8.822071E1,4.34152E1,5.603343E1,4.2844967E1,5.2266173E0,1.624544E1,7.379862E0,3.493163E1,6.742307E0,1.0648929E1,1.4160475E0,1.0471648E0,9.104654E1,1.0010267E1,5.235251E0,1.0419326E0,3.567485E2,9.626945E1,1.8182909E2,2.8007602E2,3.4768344E2,2.0699323E2,2.207985E0,5.0803246E0,3.9691312E2,7.9783646E1,2.0007166E1,3.5616543E1,1.3951675E1,2.190291E1,1.7556207E2,5.1026E1,3.0748904E2,1.4204321E0,9.654667E0,3.5134482E0,1.5832124E2,4.544272E1,1.6136913E1,9.172044E0,2.8507035E0,2.3387055E0,1.02272995E2,2.2984581E1,1.2189063E0,5.0910374E1,1.1546209E2,5.700923E0,3.613281E1,7.3397174E0,1.1475289E1,1.2073766E0,1.5765144E0,6.645668E0,2.9379754E0,2.2712677E0,2.7478323E0,5.4303677E1,1.0846036E1,9.4539795E0,8.205819E0,1.129868E1,1.579263E0,8.063393E0,1.4914753E1,2.2494597E0,3.8844128E0,7.0003743E0],"tree_param":{"num_deleted":"0","num_feature":"9","num_nodes":"237","size_leaf_vector":"1"}},{"base_weights":[-5.0438675E-3,-4.803667E-1,1.2569906E0,-5.980583E-1,6.4749753E-1,1.9027377E0,4.8615414E-1,3.486799E-1,-7.185864E-1,7.794823E-1,-8.601746E-1,1.9613199E0,-7.70665E-1,-2.1058986E-1,1.4751524E0,5.248085E-1,1.7076574E-2,-9.5349723E-1,-4.9686673E-1,1.674716E0,5.872705E-1,-4.9505746E-1,-9.9716604E-1,1.9724867E0,-1.0607059E-1,8.4769356E-1,-1.2235893E-1,-2.9756108E-1,5.93248E-1,1.8223262E0,6.30548E-1,4.6605873E-1,1.2510799E0,-1.3429758E-1,4.8992684E-1,-5.49547E-1,-1.0133854E0,-3.3087954E-1,-8.130337E-1,1.7380841E-1,-7.832722E-2,-9.4170284E-1,8.796435E-1,-9.704718E-2,6.121365E-1,-1.6709559E-2,-1.0677911E-1,2.1840782E0,1.8635558E0,1.2074131E-2,1.0793343E0,-1.08947925E-1,-4.9961925E-1,7.7854496E-1,-7.798207E-1,1.9033608E0,5.249669E-1,-8.10937E-3,2.0085779E-1,3.8477537E-1,8.4758663E-1,1.3581182E0,-3.0381307E-3,-1.9667277E-1,2.7456346E-1,5.762512E-1,7.6727318E-3,-6.531551E-1,1.02945425E-1,-9.4599634E-1,-1.1325637E0,-2.9957268E-1,-9.474943E-1,2.55107E-2,-8.957721E-1,-4.7345716E-1,-1.2768926E-1,9.5684296E-1,-8.9387965E-1,1.1439391E-1,-2.8951475E-2,4.4224784E-2,2.1943827E-1,5.8881605E-1,1.8704771E0,1.3691476E-1,2.2657895E-2,-3.073589E-1,3.1634653E-1,-6.1090106E-1,1.5621677E-1,2.9763055E-1,1.5982972E0,-1.0931877E-1,2.3855926E-2,1.936897E-1,1.0148773E0,1.4510928E0,-6.356136E-1,3.98001E-1,-4.713172E-1,5.3767014E-1,1.8157852E-1,9.479952E-2,-3.293943E-2,9.234032E-1,1.5944022E-1,-1.6978827E-1,-5.736559E-1,5.5322707E-2,-1.9761993E-1,5.6322995E-3,6.7284785E-2,-4.67122E-1,-7.2630835E-1,8.768218E-1,-9.4752215E-2,-1.0241054E0,-8.6850744E-1,-1.1444455E0,-7.302541E-1,-4.635399E-1,-1.0754799E-1,-7.579961E-1,-1.0894207E0,-2.0170294E-1,1.4629094E-1,-9.076457E-1,1.8727896E-1,7.008873E-2,-1.16345085E-1,1.1942332E0,2.6470992E-1,-1.1298512E0,2.5163142E-2,6.958173E-2,2.2216413E-2,1.8889232E-1,1.4745755E0,-4.096159E-1,1.5932304E-1,1.6125382E-1,2.5046846E-1,-5.014929E-1,-7.4085677E-1,6.825675E-1,-4.9783245E-1,-8.3200544E-1,5.755553E-1,1.7318462E-1,7.7150404E-1,-2.2316819E-2,1.3738731E0,5.4854102E-2,1.6609888E-1,1.5902907E-2,-8.9822814E-2,3.9884694E-2,1.1303625E0,-1.0556612E0,4.6126404E-1,7.191287E-2,4.9375873E-2,7.4254447E-3,5.9464224E-2,1.471108E-1,-1.103777E-2,-1.5393577E-2,-7.190639E-2,2.2498413E-3,-7.7841155E-2,-3.0607391E-2,1.3618714E-2,-5.0605845E-2,-3.059711E-2,-6.748962E-2,-9.148825E-2,1.2522553E-1,4.7771078E-2,-3.1119892E-2,3.694305E-2,-8.4206566E-2,-1.0680773E-1,-7.529635E-2,-9.150318E-2,-1.1460259E-1,-3.3618987E-2,-3.740802E-2,-1.11081414E-1,-4.8093718E-2,8.816427E-2,1.9609395E-3,-5.4224532E-2,-5.2120745E-2,-1.1331282E-1,-1.657654E-2,-1.1198347E-1,8.536083E-3,-5.496616E-2,-7.936505E-2,-1.09892525E-1,-3.775597E-2,1.22623794E-1,6.448912E-2,1.4458525E-1,5.1532537E-2,-5.512553E-2,-1.2048452E-1,-3.8464334E-2,1.6370796E-1,7.862397E-3,-4.4770993E-2,1.27401E-2,3.1640273E-2,-9.1096096E-2,-3.659407E-2,3.7872326E-2,-6.583446E-2,-9.444053E-3,-7.9308584E-2,3.2123126E-2,1.3674133E-1,1.7009927E-2,-8.111438E-2,9.243702E-2,2.418636E-3,-1.1379098E-1,7.637938E-2,4.958195E-3,-3.7518274E-2,1.4588235E-1,6.171704E-2,1.575427E-1,-6.833833E-2,5.6323368E-2,-1.4433736E-2,1.407985E-1,-1.096699E-1,-2.544329E-2,1.3164175E-1,-2.3366988E-2],"categories":[],"categories_nodes":[],"categories_segments":[],"categories_sizes":[],"default_left":[0,0,0,0,0,0,0,0,0,0,0,0,0,0,0,0,0,0,0,0,0,0,0,0,0,0,0,0,0,0,0,0,0,0,0,0,0,0,0,0,0,0,0,0,0,0,0,0,0,0,0,0,0,0,0,0,0,0,0,0,0,0,0,0,0,0,0,0,0,0,0,0,0,0,0,0,0,0,0,0,0,0,0,0,0,0,0,0,0,0,0,0,0,0,0,0,0,0,0,0,0,0,0,0,0,0,0,0,0,0,0,0,0,0,0,0,0,0,0,0,0,0,0,0,0,0,0,0,0,0,0,0,0,0,0,0,0,0,0,0,0,0,0,0,0,0,0,0,0,0,0,0,0,0,0,0,0,0,0,0,0,0,0,0,0,0,0,0,0,0,0,0,0,0,0,0,0,0,0,0,0,0,0,0,0,0,0,0,0,0,0,0,0,0,0,0,0,0,0,0,0,0,0,0,0,0,0,0,0,0,0,0,0,0,0,0,0,0,0,0,0,0,0,0,0,0,0,0,0,0,0,0,0,0,0,0,0,0,0,0,0],"id":4,"left_children":[1,3,5,7,9,11,13,15,17,19,21,23,25,27,29,31,33,35,37,39,41,43,45,47,-1,49,-1,51,53,55,57,59,61,63,65,67,69,71,73,-1,-1,75,77,-1,79,-1,-1,81,83,-1,85,87,89,91,93,95,97,99,-1,101,103,105,-1,107,109,111,-1,113,115,117,119,121,123,125,127,129,-1,131,133,-1,-1,-1,-1,135,137,-1,-1,139,141,143,145,147,149,-1,-1,-1,151,153,155,157,159,161,163,-1,-1,165,-1,167,169,-1,171,-1,-1,173,175,177,179,181,183,185,187,189,191,193,195,197,-1,199,-1,201,-1,203,205,207,-1,-1,-1,-1,209,211,213,-1,215,217,219,221,223,225,227,-1,229,-1,231,-1,-1,-1,-1,233,235,237,239,-1,-1,-1,-1,-1,-1,-1,-1,-1,-1,-1,-1,-1,-1,-1,-1,-1,-1,-1,-1,-1,-1,-1,-1,-1,-1,-1,-1,-1,-1,-1,-1,-1,-1,-1,-1,-1,-1,-1,-1,-1,-1,-1,-1,-1,-1,-1,-1,-1,-1,-1,-1,-1,-1,-1,-1,-1,-1,-1,-1,-1,-1,-1,-1,-1,-1,-1,-1,-1,-1,-1,-1,-1,-1,-1,-1,-1,-1,-1,-1],"loss_changes":[3.2674036E3,5.255893E2,7.408418E2,4.0913342E2,7.515988E1,1.2845459E2,4.6932886E2,2.3664787E1,1.6509924E2,5.833574E1,1.0372868E0,2.8868652E1,1.4303369E1,2.8154741E1,8.137793E1,1.071106E1,1.0204206E1,3.675818E1,8.566513E1,1.0768082E1,1.2838284E2,6.035088E0,1.0685692E0,1.4158691E1,0E0,6.3558054E-1,0E0,1.3733795E1,1.0633055E1,1.991455E1,7.351824E1,7.317684E0,2.6769943E0,2.8103237E0,1.1886368E0,1.3678467E1,9.707642E0,2.0476753E1,3.908606E1,0E0,0E0,6.6602325E0,3.372177E1,0E0,2.1141474E0,0E0,0E0,3.7496338E0,3.5651855E0,0E0,5.1109457E-1,1.5995078E1,1.2823013E1,1.3409491E1,1.915515E0,3.6018066E0,1.4976759E1,1.1110199E1,0E0,6.2719536E0,5.329891E0,3.515892E-1,0E0,8.5889935E-1,2.0466228E0,1.390295E0,0E0,2.0271301E0,4.436243E0,4.336426E0,1.4572754E0,3.2221153E1,5.593567E-1,1.7126923E1,1.8547028E1,7.9199457E0,0E0,3.75596E1,3.1307201E0,0E0,0E0,0E0,0E0,1.4727473E-2,1.0527344E0,0E0,0E0,6.220126E0,4.7559414E0,1.7512093E0,9.323076E0,7.8338776E0,7.6545715E-2,0E0,0E0,0E0,4.260933E0,5.2429485E-1,1.4990275E0,8.211453E0,1.551823E1,5.730667E-1,3.9253147E0,0E0,0E0,5.0480795E0,0E0,6.685827E-1,7.3289883E-1,0E0,2.6617953E-1,0E0,0E0,1.7069054E-1,5.7509613E-1,2.8392696E-1,2.482662E0,2.4978027E0,1.6763306E0,2.0770264E-1,1.8242865E0,1.3355293E1,2.6176798E1,1.6604385E0,5.773506E-1,4.579893E0,0E0,1.0269775E1,0E0,7.0015893E0,0E0,2.2754242E1,1.25858135E1,3.471756E-2,0E0,0E0,0E0,0E0,6.2133255E0,2.227003E0,4.306455E0,0E0,4.7782736E0,5.3106594E0,3.9239845E0,4.989882E0,6.1922684E0,1.3461494E0,1.8821449E0,0E0,3.370868E0,0E0,1.0092735E-1,0E0,0E0,0E0,0E0,8.780176E0,3.8489056E0,2.8853607E-1,7.0355883E0,0E0,0E0,0E0,0E0,0E0,0E0,0E0,0E0,0E0,0E0,0E0,0E0,0E0,0E0,0E0,0E0,0E0,0E0,0E0,0E0,0E0,0E0,0E0,0E0,0E0,0E0,0E0,0E0,0E0,0E0,0E0,0E0,0E0,0E0,0E0,0E0,0E0,0E0,0E0,0E0,0E0,0E0,0E0,0E0,0E0,0E0,0E0,0E0,0E0,0E0,0E0,0E0,0E0,0E0,0E0,0E0,0E0,0E0,0E0,0E0,0E0,0E0,0E0,0E0,0E0,0E0,0E0,0E0,0E0,0E0,0E0,0E0,0E0,0E0,0E0,0E0,0E0,0E0,0E0,0E0],"parents":[2147483647,0,0,1,1,2,2,3,3,4,4,5,5,6,6,7,7,8,8,9,9,10,10,11,11,12,12,13,13,14,14,15,15,16,16,17,17,18,18,19,19,20,20,21,21,22,22,23,23,25,25,27,27,28,28,29,29,30,30,31,31,32,32,33,33,34,34,35,35,36,36,37,37,38,38,41,41,42,42,44,44,47,47,48,48,50,50,51,51,52,52,53,53,54,54,55,55,56,56,57,57,59,59,60,60,61,61,63,63,64,64,65,65,67,67,68,68,69,69,70,70,71,71,72,72,73,73,74,74,75,75,77,77,78,78,83,83,84,84,87,87,88,88,89,89,90,90,91,91,92,92,96,96,97,97,98,98,99,99,100,100,101,101,102,102,105,105,107,107,108,108,110,110,113,113,114,114,115,115,116,116,117,117,118,118,119,119,120,120,121,121,122,122,123,123,124,124,125,125,127,127,129,129,131,131,132,132,133,133,138,138,139,139,140,140,142,142,143,143,144,144,145,145,146,146,147,147,148,148,150,150,152,152,157,157,158,158,159,159,160,160],"right_children":[2,4,6,8,10,12,14,16,18,20,22,24,26,28,30,32,34,36,38,40,42,44,46,48,-1,50,-1,52,54,56,58,60,62,64,66,68,70,72,74,-1,-1,76,78,-1,80,-1,-1,82,84,-1,86,88,90,92,94,96,98,100,-1,102,104,106,-1,108,110,112,-1,114,116,118,120,122,124,126,128,130,-1,132,134,-1,-1,-1,-1,136,138,-1,-1,140,142,144,146,148,150,-1,-1,-1,152,154,156,158,160,162,164,-1,-1,166,-1,168,170,-1,172,-1,-1,174,176,178,180,182,184,186,188,190,192,194,196,198,-1,200,-1,202,-1,204,206,208,-1,-1,-1,-1,210,212,214,-1,216,218,220,222,224,226,228,-1,230,-1,232,-1,-1,-1,-1,234,236,238,240,-1,-1,-1,-1,-1,-1,-1,-1,-1,-1,-1,-1,-1,-1,-1,-1,-1,-1,-1,-1,-1,-1,-1,-1,-1,-1,-1,-1,-1,-1,-1,-1,-1,-1,-1,-1,-1,-1,-1,-1,-1,-1,-1,-1,-1,-1,-1,-1,-1,-1,-1,-1,-1,-1,-1,-1,-1,-1,-1,-1,-1,-1,-1,-1,-1,-1,-1,-1,-1,-1,-1,-1,-1,-1,-1,-1,-1,-1,-1,-1],"split_conditions":[3E0,6E0,2E0,3.5932696E0,2.8E1,8E0,4E0,3.459148E0,2E0,4.021641E0,3.9E1,1E0,4.863936E0,6E0,3E0,1E0,2E0,3.7843685E0,2E0,1E0,2E0,2E0,3.485826E0,4.4112043E0,-1.0607059E-1,1E0,-1.2235893E-1,4.3163404E0,4.887487E0,4.912215E0,5E0,2E0,3.4406364E0,1E0,3.5766177E0,1E0,4.361864E0,1E1,3.7464395E0,1.7380841E-1,-7.832722E-2,9E0,2E0,-9.704718E-2,4.496372E0,-1.6709559E-2,-1.0677911E-1,3.5464394E0,4.413716E0,1.2074131E-2,3E0,1E0,4.683326E0,1E0,4E0,6E0,9E0,1E0,2.0085779E-1,3.321928E0,3.4406364E0,3.2639334E0,-3.0381307E-3,2E0,3.5464394E0,3.485826E0,7.6727318E-3,3.6477427E0,3.6385305E0,1E0,4E0,1E0,1.3E1,1E0,1E0,4.63042E0,-1.2768926E-1,1.1E1,4.814111E0,1.1439391E-1,-2.8951475E-2,4.4224784E-2,2.1943827E-1,1E0,5E0,1.3691476E-1,2.2657895E-2,3E0,3.7843685E0,3E0,1E0,4.487965E0,4.6961317E0,-1.0931877E-1,2.3855926E-2,1.936897E-1,4.40313E0,5.056745E0,1E0,4E0,4.61969E0,2.947703E0,3.4406364E0,9.479952E-2,-3.293943E-2,3.180833E0,1.5944022E-1,1E0,3.5216405E0,5.5322707E-2,3.5766177E0,5.6322995E-3,6.7284785E-2,3.6385305E0,3.7534344E0,3.6163485E0,2E0,3.879664E0,4.0511084E0,5.056745E0,4.61969E0,5.056745E0,4.5085664E0,4.503514E0,4.079773E0,3.6841838E0,1.4629094E-1,4.255503E0,1.8727896E-1,3E0,-1.16345085E-1,8E0,4.814111E0,1.1E1,2.5163142E-2,6.958173E-2,2.2216413E-2,1.8889232E-1,4.863936E0,2E0,2E0,1.6125382E-1,4.030639E0,1E0,1E0,1E0,4.9985695E0,4.4112043E0,4.709768E0,1.7318462E-1,5E0,-2.2316819E-2,3E0,5.4854102E-2,1.6609888E-1,1.5902907E-2,-8.9822814E-2,4.219528E0,3.8164027E0,4.590058E0,5E0,7.191287E-2,4.9375873E-2,7.4254447E-3,5.9464224E-2,1.471108E-1,-1.103777E-2,-1.5393577E-2,-7.190639E-2,2.2498413E-3,-7.7841155E-2,-3.0607391E-2,1.3618714E-2,-5.0605845E-2,-3.059711E-2,-6.748962E-2,-9.148825E-2,1.2522553E-1,4.7771078E-2,-3.1119892E-2,3.694305E-2,-8.4206566E-2,-1.0680773E-1,-7.529635E-2,-9.150318E-2,-1.1460259E-1,-3.3618987E-2,-3.740802E-2,-1.11081414E-1,-4.8093718E-2,8.816427E-2,1.9609395E-3,-5.4224532E-2,-5.2120745E-2,-1.1331282E-1,-1.657654E-2,-1.1198347E-1,8.536083E-3,-5.496616E-2,-7.936505E-2,-1.09892525E-1,-3.775597E-2,1.22623794E-1,6.448912E-2,1.4458525E-1,5.1532537E-2,-5.512553E-2,-1.2048452E-1,-3.8464334E-2,1.6370796E-1,7.862397E-3,-4.4770993E-2,1.27401E-2,3.1640273E-2,-9.1096096E-2,-3.659407E-2,3.7872326E-2,-6.583446E-2,-9.444053E-3,-7.9308584E-2,3.2123126E-2,1.3674133E-1,1.7009927E-2,-8.111438E-2,9.243702E-2,2.418636E-3,-1.1379098E-1,7.637938E-2,4.958195E-3,-3.7518274E-2,1.4588235E-1,6.171704E-2,1.575427E-1,-6.833833E-2,5.6323368E-2,-1.4433736E-2,1.407985E-1,-1.096699E-1,-2.544329E-2,1.3164175E-1,-2.3366988E-2],"split_indices":[1,7,3,8,7,1,1,8,1,8,7,6,8,7,3,2,3,8,3,2,1,1,8,8,0,7,0,8,8,8,3,3,8,2,8,2,8,2,8,0,0,7,3,0,8,0,0,8,8,0,7,2,8,2,2,1,7,7,0,8,8,8,0,1,8,8,0,8,8,2,7,2,2,2,6,8,0,7,8,0,0,0,0,7,1,0,0,3,8,2,7,8,8,0,0,0,8,8,2,3,8,8,8,0,0,8,0,7,8,0,8,0,0,8,8,8,2,8,8,8,8,8,8,8,8,8,0,8,0,2,0,7,8,7,0,0,0,0,8,7,7,0,8,2,7,2,8,8,8,0,2,0,7,0,0,0,0,8,8,8,7,0,0,0,0,0,0,0,0,0,0,0,0,0,0,0,0,0,0,0,0,0,0,0,0,0,0,0,0,0,0,0,0,0,0,0,0,0,0,0,0,0,0,0,0,0,0,0,0,0,0,0,0,0,0,0,0,0,0,0,0,0,0,0,0,0,0,0,0,0,0,0,0,0,0,0,0,0,0,0,0],"split_type":[0,0,0,0,0,0,0,0,0,0,0,0,0,0,0,0,0,0,0,0,0,0,0,0,0,0,0,0,0,0,0,0,0,0,0,0,0,0,0,0,0,0,0,0,0,0,0,0,0,0,0,0,0,0,0,0,0,0,0,0,0,0,0,0,0,0,0,0,0,0,0,0,0,0,0,0,0,0,0,0,0,0,0,0,0,0,0,0,0,0,0,0,0,0,0,0,0,0,0,0,0,0,0,0,0,0,0,0,0,0,0,0,0,0,0,0,0,0,0,0,0,0,0,0,0,0,0,0,0,0,0,0,0,0,0,0,0,0,0,0,0,0,0,0,0,0,0,0,0,0,0,0,0,0,0,0,0,0,0,0,0,0,0,0,0,0,0,0,0,0,0,0,0,0,0,0,0,0,0,0,0,0,0,0,0,0,0,0,0,0,0,0,0,0,0,0,0,0,0,0,0,0,0,0,0,0,0,0,0,0,0,0,0,0,0,0,0,0,0,0,0,0,0,0,0,0,0,0,0,0,0,0,0,0,0,0,0,0,0,0,0],"sum_hessian":[5.444812E3,3.955618E3,1.4891938E3,3.58228E3,3.733379E2,8.0954834E2,6.796455E2,4.0433887E2,3.1779412E3,3.4373004E2,2.9607853E1,7.9244977E2,1.709857E1,3.99199E2,2.804465E2,2.6369608E2,1.406428E2,1.5414657E3,1.6364755E3,5.9392838E1,2.843372E2,9.33677E0,2.0271082E1,7.8987836E2,2.571435E0,3.5483265E0,1.3550243E1,3.6079285E2,3.8406155E1,1.9792998E2,8.2516525E1,2.454803E2,1.821576E1,1.07079346E2,3.3563465E1,2.003392E2,1.3411265E3,1.0744417E3,5.620338E2,5.818567E1,1.2071717E0,4.5286934E1,2.3905025E2,6.618402E0,2.7183685E0,1.8534201E0,1.8417662E1,2.6196942E2,5.2790894E2,1.2250445E0,2.323282E0,1.8740086E2,1.7339197E2,3.4220985E1,4.185167E0,1.8585419E2,1.2075785E1,5.7063957E1,2.5452568E1,2.0402245E2,4.1457855E1,1.6756315E1,1.4594451E0,9.335607E1,1.3723281E1,2.7436838E1,6.1266255E0,1.7288596E2,2.7453245E1,8.624145E2,4.78712E2,1.0239399E3,5.0501778E1,5.0537136E1,5.1149667E2,1.9899996E1,2.538694E1,2.2951999E2,9.53026E0,1.5408465E0,1.1775221E0,1.7989553E0,2.6017044E2,3.315663E0,5.2459326E2,1.282023E0,1.0412592E0,1.27974655E2,5.9426212E1,1.4829747E2,2.5094496E1,2.242705E1,1.1793939E1,3.1442027E0,1.0409642E0,1.7795712E2,7.897065E0,6.577067E0,5.498718E0,3.048099E1,2.6582966E1,1.1548221E2,8.8540245E1,3.837834E1,3.0795128E0,7.628829E0,9.127485E0,8.8495415E1,4.860651E0,8.522191E0,5.20109E0,4.546817E0,2.289002E1,5.0880188E1,1.2200577E2,4.8872423E0,2.2566004E1,4.2340482E2,4.3900967E2,4.6318753E2,1.5524488E1,5.5155817E2,4.7238177E2,2.4341759E1,2.616002E1,4.438133E1,6.155806E0,5.0998166E2,1.5150125E0,1.1633819E1,8.266177E0,1.7036288E2,5.9157104E1,7.9137278E0,1.616532E0,1.8716837E0,1.4439794E0,4.9763605E2,2.6957228E1,1.0507371E2,2.2900953E1,1.738695E0,5.7687515E1,8.3151855E1,6.5145615E1,1.388048E1,1.1214017E1,4.034605E0,1.8392445E1,9.211399E0,2.5825393E0,1.8602152E0,6.03685E0,1.9227302E0,4.654337E0,1.4638145E0,4.034903E0,2.1179111E1,9.301879E0,1.6261642E1,1.0321323E1,1.9504667E1,9.597754E1,7.121628E1,1.7323969E1,4.710261E0,2.9185681E0,8.7257355E1,1.2380618E0,1.4702065E0,3.3904448E0,3.9883542E0,1.2127355E0,3.9255264E1,1.1624924E1,9.946653E1,2.2539238E1,1.4168435E0,3.470399E0,1.5614565E1,6.9514384E0,8.629606E1,3.3710873E2,1.3095787E2,3.0805182E2,4.6186655E2,1.3209764E0,9.043482E0,6.4810066E0,5.4515015E2,6.4079742E0,3.6621243E2,1.06169334E2,1.6387276E1,7.9544826E0,1.0395566E0,2.5120464E1,2.4732143E1,1.9649185E1,3.2277148E2,1.8721016E2,8.872079E0,2.7617395E0,5.463823E1,1.15724655E2,4.5538776E1,1.3618329E1,6.6297526E0,1.2839752E0,2.3991608E1,2.965621E0,9.826916E1,6.804549E0,2.0584286E1,2.316667E0,9.616435E0,4.807108E1,5.9577267E1,2.3574587E1,6.2333588E1,2.81203E0,5.2269998E0,8.65348E0,9.541648E0,1.6723691E0,1.3044716E0,2.7301335E0,1.3211927E1,5.1805162E0,1.1380365E0,1.4445028E0,2.1241448E0,3.9127054E0,8.762941E0,1.241617E1,1.7494396E0,7.5524387E0,1.5118522E1,1.1431206E0,4.226313E0,6.0950108E0],"tree_param":{"num_deleted":"0","num_feature":"9","num_nodes":"241","size_leaf_vector":"1"}},{"base_weights":[2.6940783E-3,-4.4043666E-1,1.1376133E0,2.86565E-1,-5.44024E-1,1.6950443E0,4.4078937E-1,6.10501E-1,1.3287938E-1,-8.2578564E-1,-3.124308E-1,1.7434939E0,-5.936264E-1,-2.0469011E-1,1.3307084E0,5.556192E-1,1.3526218E-1,1.908075E-2,5.6828123E-1,-3.0122522E-1,-9.4735825E-1,-1.067264E-1,-8.0879736E-1,1.7515684E0,-9.6730255E-2,1.2539992E0,-1.018447E0,-3.423584E-1,3.0882844E-1,1.6265738E0,5.989707E-1,5.717796E-1,-7.578449E-2,3.6912E-1,-9.723508E-2,6.9797295E-1,-5.3219026E-1,-6.017465E-1,1.2019984E0,-8.6123943E-1,-1.0721308E0,-3.986842E-1,2.607453E-1,-4.1814655E-1,-9.5627487E-1,1.9294035E0,1.6668024E0,1.6040663E-1,3.96424E-2,-1.1912513E-1,4.9821544E-2,-1.0187021E-1,-6.5112245E-1,5.4673946E-1,-2.0875269E-1,1.6778507E0,6.010114E-1,1.9148761E-2,1.8621077E-1,7.2387797E-1,4.8085317E-1,1.5388912E-1,6.587125E-1,-1.7843372E-1,4.7062314E-1,5.927521E-1,1.5195641E-1,1.23215215E-2,-7.7233925E-2,-2.7882963E-1,-7.721273E-1,1.6977862E-1,-1.0271875E-1,-9.6547693E-1,-5.862615E-1,-1.169508E-1,-1.0048275E0,-3.5346204E-1,-1.0411888E-1,3.6054707E-1,-9.253143E-1,5.358412E-1,-5.129045E-1,-9.7780263E-1,1.8596107E-1,4.270932E-1,1.9498559E0,7.572112E-1,1.7025695E0,-2.8123763E-1,3.2270813E-1,-7.200741E-1,-1.17432065E-1,3.8130778E-1,1.4311986E0,-6.1166847E-1,5.6389165E-1,1.700345E-1,5.966979E-1,1.2101612E0,-9.7965576E-2,-1.1001048E-1,1.9005696E-1,4.6774516E-1,1.0598004E0,5.564148E-1,2.2386293E-1,-6.243236E-2,2.4728996E-1,1.1190886E0,5.632376E-1,-2.0898329E-1,7.4990165E-1,8.692012E-1,-6.967848E-1,6.886695E-1,3.0829394E-1,-3.8401005E-1,4.5599145E-1,-8.2624215E-1,-1.2528661E-1,-8.953626E-1,-1.0620471E-1,2.9390988E-1,-6.8466693E-1,-8.550707E-1,-1.0884535E0,-7.250743E-1,-2.6135537E-1,2.8616175E-1,1.1287344E0,2.3798523E-2,-9.79824E-1,8.697796E-1,-3.45724E-1,-5.9509325E-1,-1.0300086E-1,-1.0786743E0,-8.554596E-1,5.390032E-1,4.667641E-3,5.495433E-2,1.9540794E-1,1.3005999E0,-2.266192E-1,1.732209E-1,1.3592157E0,-4.001505E-1,2.2666486E-1,1.6887988E-1,2.5350258E-1,-6.6198426E-1,-1.1072009E-1,3.3613274E-1,-1.0608851E-1,6.032639E-1,-2.0658828E-1,2.0279536E-2,1.6035271E0,2.5739306E-1,-9.503056E-1,9.7648716E-1,-8.2720734E-2,-6.521837E-2,1.486699E-1,1.495643E-1,3.719019E-1,-3.485827E-1,2.5500867E-1,7.508569E-2,4.829599E-4,6.5047026E-2,1.1862757E-1,5.9665244E-2,2.8764864E-2,-1.4217429E-2,6.1026324E-2,2.8432298E-2,-2.8020874E-2,4.259065E-2,1.3616502E-1,9.047486E-2,4.476765E-2,-4.059991E-3,-3.6516063E-2,1.3292445E-1,-6.860524E-2,5.9287976E-2,1.6641888E-1,-2.1676456E-3,-1.0234817E-1,3.279898E-2,8.824089E-2,5.5253465E-2,-4.055694E-2,2.2678172E-2,-4.8987474E-2,-1.845623E-3,9.2387706E-2,-8.570191E-2,-5.1698145E-2,1.6761698E-1,-1.0293483E-1,-9.997512E-2,-7.13385E-2,1.0887984E-1,-8.967432E-2,-5.8738686E-2,-9.984409E-2,-6.955561E-2,-1.1381964E-1,-1.0921955E-1,-2.8659284E-2,-6.320466E-2,-1.1986063E-1,-2.3305065E-3,-3.940798E-2,4.2360947E-2,-4.6526823E-2,1.4042157E-1,-1.8468093E-2,-1.0263906E-1,1.3481222E-2,5.9854865E-2,1.4906038E-1,-2.420268E-3,-6.890719E-2,-1.22330515E-2,-6.1615434E-2,-2.8367028E-2,6.862409E-2,-5.8688737E-2,-1.0886555E-1,5.0101383E-3,-9.394821E-2,1.0076117E-2,7.054568E-2,3.8358796E-2,1.5768628E-1,1.0558482E-1,-9.075932E-2,1.604711E-1,2.3740483E-2,-4.3010868E-2,1.958905E-2,3.546314E-2,-6.465139E-2,-9.250203E-4,6.0660716E-2,-1.1105432E-1,-6.146471E-2,9.236839E-2,-8.066323E-2,-1.3356757E-2,9.355342E-2,-4.324112E-2,1.19620524E-1,1.0085052E-1,2.1644175E-1,1.0779955E-1,-8.797677E-2,-1.004323E-1,-1.5711045E-2,1.11412525E-1,2.3589568E-2,1.0006366E-1,-3.702497E-2,-8.870684E-2,5.8835775E-2,1.3407438E-1,-7.0112236E-3],"categories":[],"categories_nodes":[],"categories_segments":[],"categories_sizes":[],"default_left":[0,0,0,0,0,0,0,0,0,0,0,0,0,0,0,0,0,0,0,0,0,0,0,0,0,0,0,0,0,0,0,0,0,0,0,0,0,0,0,0,0,0,0,0,0,0,0,0,0,0,0,0,0,0,0,0,0,0,0,0,0,0,0,0,0,0,0,0,0,0,0,0,0,0,0,0,0,0,0,0,0,0,0,0,0,0,0,0,0,0,0,0,0,0,0,0,0,0,0,0,0,0,0,0,0,0,0,0,0,0,0,0,0,0,0,0,0,0,0,0,0,0,0,0,0,0,0,0,0,0,0,0,0,0,0,0,0,0,0,0,0,0,0,0,0,0,0,0,0,0,0,0,0,0,0,0,0,0,0,0,0,0,0,0,0,0,0,0,0,0,0,0,0,0,0,0,0,0,0,0,0,0,0,0,0,0,0,0,0,0,0,0,0,0,0,0,0,0,0,0,0,0,0,0,0,0,0,0,0,0,0,0,0,0,0,0,0,0,0,0,0,0,0,0,0,0,0,0,0,0,0,0,0,0,0,0,0,0,0,0,0,0,0,0,0,0,0,0,0,0,0,0,0,0,0,0,0,0,0,0,0,0,0,0,0,0,0,0,0,0,0],"id":5,"left_children":[1,3,5,7,9,11,13,15,17,19,21,23,25,27,29,31,-1,33,35,37,39,41,43,45,-1,47,49,51,53,55,57,59,-1,61,63,65,67,69,71,73,75,77,79,81,83,85,87,-1,-1,-1,-1,89,91,93,95,97,99,101,-1,103,105,107,109,111,113,115,-1,-1,-1,117,119,-1,-1,121,123,-1,125,127,-1,129,131,133,135,137,-1,139,141,143,145,147,149,151,153,155,157,159,161,-1,163,165,-1,167,-1,169,171,173,175,-1,177,179,181,183,185,187,189,191,193,195,197,199,201,203,-1,205,207,209,211,213,215,217,219,-1,221,223,225,227,229,231,233,235,-1,-1,-1,237,239,-1,241,243,245,-1,247,249,-1,251,-1,253,255,-1,257,259,261,263,-1,-1,-1,-1,265,267,269,-1,-1,-1,-1,-1,-1,-1,-1,-1,-1,-1,-1,-1,-1,-1,-1,-1,-1,-1,-1,-1,-1,-1,-1,-1,-1,-1,-1,-1,-1,-1,-1,-1,-1,-1,-1,-1,-1,-1,-1,-1,-1,-1,-1,-1,-1,-1,-1,-1,-1,-1,-1,-1,-1,-1,-1,-1,-1,-1,-1,-1,-1,-1,-1,-1,-1,-1,-1,-1,-1,-1,-1,-1,-1,-1,-1,-1,-1,-1,-1,-1,-1,-1,-1,-1,-1,-1,-1,-1,-1,-1,-1,-1,-1,-1,-1,-1,-1,-1,-1,-1,-1],"loss_changes":[2.6909666E3,2.899558E2,5.8288135E2,2.3844387E1,2.1955713E2,9.3558105E1,3.846328E2,5.535404E0,1.6202446E1,9.6590454E1,1.8885976E2,1.958496E1,1.5439751E1,2.7584337E1,5.9954468E1,3.5202065E0,0E0,1.0640329E1,1.0043505E1,1.3050656E2,1.2323364E1,1.4059206E2,3.082837E1,9.073975E0,0E0,5.1130533E-1,4.583048E0,2.2729057E1,1.0297598E1,9.499695E0,6.046901E1,1.646595E0,0E0,3.9606113E0,9.134536E0,4.377516E0,1.3089886E0,1.2994217E1,5.5013435E1,2.04859E1,2.0974731E0,2.0845543E1,6.903172E1,1.3864092E1,2.5624542E1,7.0584106E0,1.691211E1,0E0,0E0,0E0,0E0,1.3323685E1,4.8549423E0,7.7845707E0,8.677596E0,3.5999756E0,1.1847461E1,1.421371E1,0E0,3.9770737E0,1.6861496E0,2.9665642E0,5.775604E-1,5.0475636E0,1.2159422E1,1.3091888E0,0E0,0E0,0E0,6.705275E0,5.3780746E0,0E0,0E0,2.6447144E0,1.7907898E1,0E0,2.855957E0,2.3209152E1,0E0,3.0307205E1,3.1072998E0,4.4432364E0,4.562763E0,3.89505E0,0E0,1.7620426E-1,4.2297363E-1,1.2573523E1,3.1156006E0,7.500716E0,4.494794E0,1.9358749E0,7.439847E0,6.5609355E0,1.4969807E0,5.5631595E0,6.371941E0,0E0,6.9806366E0,1.463584E0,0E0,4.867558E0,0E0,4.0965157E0,3.517418E-1,6.003761E-1,3.3200588E0,0E0,7.684674E-1,4.3323517E-2,5.726576E-1,4.396398E0,5.664006E0,3.1773634E0,1.4941356E0,2.5680237E0,2.9914975E0,4.9253836E0,2.467035E0,9.3070984E-1,2.3334845E1,5.2521973E0,0E0,2.1095125E1,5.0352936E0,4.312065E0,2.581787E-1,5.1990585E0,1.7348911E1,5.0811054E1,1.7259052E1,0E0,2.3958015E0,8.742018E-1,4.890924E-1,1.0609245E0,3.6359122E0,3.9257812E-1,1.3838058E1,1.8860447E-1,0E0,0E0,0E0,3.1810818E0,8.838932E0,0E0,1.2660782E1,1.8658895E0,2.9013572E0,0E0,4.7129993E0,1.5613556E0,0E0,8.760698E0,0E0,8.9538555E0,5.035676E0,0E0,2.8819656E-1,6.4113355E0,4.085455E-1,5.460658E-1,0E0,0E0,0E0,0E0,1.9920526E0,1.7477943E1,7.954125E0,0E0,0E0,0E0,0E0,0E0,0E0,0E0,0E0,0E0,0E0,0E0,0E0,0E0,0E0,0E0,0E0,0E0,0E0,0E0,0E0,0E0,0E0,0E0,0E0,0E0,0E0,0E0,0E0,0E0,0E0,0E0,0E0,0E0,0E0,0E0,0E0,0E0,0E0,0E0,0E0,0E0,0E0,0E0,0E0,0E0,0E0,0E0,0E0,0E0,0E0,0E0,0E0,0E0,0E0,0E0,0E0,0E0,0E0,0E0,0E0,0E0,0E0,0E0,0E0,0E0,0E0,0E0,0E0,0E0,0E0,0E0,0E0,0E0,0E0,0E0,0E0,0E0,0E0,0E0,0E0,0E0,0E0,0E0,0E0,0E0,0E0,0E0,0E0,0E0,0E0,0E0,0E0,0E0,0E0,0E0,0E0,0E0,0E0,0E0,0E0,0E0,0E0],"parents":[2147483647,0,0,1,1,2,2,3,3,4,4,5,5,6,6,7,7,8,8,9,9,10,10,11,11,12,12,13,13,14,14,15,15,17,17,18,18,19,19,20,20,21,21,22,22,23,23,25,25,26,26,27,27,28,28,29,29,30,30,31,31,33,33,34,34,35,35,36,36,37,37,38,38,39,39,40,40,41,41,42,42,43,43,44,44,45,45,46,46,51,51,52,52,53,53,54,54,55,55,56,56,57,57,59,59,60,60,61,61,62,62,63,63,64,64,65,65,69,69,70,70,73,73,74,74,76,76,77,77,79,79,80,80,81,81,82,82,83,83,85,85,86,86,87,87,88,88,89,89,90,90,91,91,92,92,93,93,94,94,95,95,96,96,98,98,99,99,101,101,103,103,104,104,105,105,106,106,108,108,109,109,110,110,111,111,112,112,113,113,114,114,115,115,116,116,117,117,118,118,119,119,120,120,121,121,123,123,124,124,125,125,126,126,127,127,128,128,129,129,130,130,132,132,133,133,134,134,135,135,136,136,137,137,138,138,139,139,143,143,144,144,146,146,147,147,148,148,150,150,151,151,153,153,155,155,156,156,158,158,159,159,160,160,161,161,166,166,167,167,168,168],"right_children":[2,4,6,8,10,12,14,16,18,20,22,24,26,28,30,32,-1,34,36,38,40,42,44,46,-1,48,50,52,54,56,58,60,-1,62,64,66,68,70,72,74,76,78,80,82,84,86,88,-1,-1,-1,-1,90,92,94,96,98,100,102,-1,104,106,108,110,112,114,116,-1,-1,-1,118,120,-1,-1,122,124,-1,126,128,-1,130,132,134,136,138,-1,140,142,144,146,148,150,152,154,156,158,160,162,-1,164,166,-1,168,-1,170,172,174,176,-1,178,180,182,184,186,188,190,192,194,196,198,200,202,204,-1,206,208,210,212,214,216,218,220,-1,222,224,226,228,230,232,234,236,-1,-1,-1,238,240,-1,242,244,246,-1,248,250,-1,252,-1,254,256,-1,258,260,262,264,-1,-1,-1,-1,266,268,270,-1,-1,-1,-1,-1,-1,-1,-1,-1,-1,-1,-1,-1,-1,-1,-1,-1,-1,-1,-1,-1,-1,-1,-1,-1,-1,-1,-1,-1,-1,-1,-1,-1,-1,-1,-1,-1,-1,-1,-1,-1,-1,-1,-1,-1,-1,-1,-1,-1,-1,-1,-1,-1,-1,-1,-1,-1,-1,-1,-1,-1,-1,-1,-1,-1,-1,-1,-1,-1,-1,-1,-1,-1,-1,-1,-1,-1,-1,-1,-1,-1,-1,-1,-1,-1,-1,-1,-1,-1,-1,-1,-1,-1,-1,-1,-1,-1,-1,-1,-1,-1,-1],"split_conditions":[3E0,3.6385305E0,2E0,3.321928E0,2E0,8E0,4E0,1E0,2E0,3.8561964E0,2E0,1E0,1.02E2,8.1E1,3E0,2.5E1,1.3526218E-1,1.6E1,2.7E1,6E1,4.354223E0,6.2E1,3.3E1,4.380062E0,-9.6730255E-2,7.8E1,1.78E2,4.3163404E0,6E0,4.947896E0,5E0,3.0930693E0,-7.578449E-2,3.4406364E0,1E0,1E0,3.5464394E0,2.2E1,1E2,5.4E1,5.8E1,4.530454E0,1.1E1,2.1E1,1E0,2.9E1,5.7E1,1.6040663E-1,3.96424E-2,-1.1912513E-1,4.9821544E-2,1E0,4.6898475E0,5E0,1.16E2,7E0,3E0,1E0,1.8621077E-1,1.3E1,1.7E1,1.2E1,1.3E1,4.7E1,2.9E1,3.5766177E0,1.5195641E-1,1.23215215E-2,-7.7233925E-2,1E0,2E0,1.6977862E-1,-1.0271875E-1,4.109596E0,3.968449E0,-1.169508E-1,8.3E1,3.4E1,-1.0411888E-1,1.34E2,8.5E1,3.7534344E0,1E0,1E0,1.8596107E-1,3.8087196E0,3.5032582E0,4.491927E0,4.912215E0,3E0,2.7E1,5E0,3E0,4.7506127E0,8.5E1,4.368979E0,1.5E1,1.700345E-1,9.4E1,1E0,-9.7965576E-2,7E1,1.9005696E-1,2.947703E0,2.947703E0,2E0,1.9E1,-6.243236E-2,1E0,1.2E1,3.459148E0,3.5216405E0,1E2,2E0,3.5032582E0,1.8E1,2.3E1,1.6E1,2E1,3.8431392E0,3E1,1E0,-1.0620471E-1,1E0,9E0,4.63042E0,5.226768E0,4.1592526E0,4.2E1,4.7506127E0,2.43E2,2.3798523E-2,1.93E2,1E0,3.8561964E0,3.6635327E0,4.0875673E0,3.8239348E0,3.9E1,3.6818807E0,4.667641E-3,5.495433E-2,1.9540794E-1,4.6E1,4.9E1,1.732209E-1,2E0,6.6E1,4.5E1,1.6887988E-1,5.4E1,4.3E1,-1.1072009E-1,1E0,-1.0608851E-1,4.5085664E0,5.4868627E0,2.0279536E-2,3E0,1E1,4.683326E0,4.7506127E0,-8.2720734E-2,-6.521837E-2,1.486699E-1,1.495643E-1,1.57E2,4E0,4.243159E0,7.508569E-2,4.829599E-4,6.5047026E-2,1.1862757E-1,5.9665244E-2,2.8764864E-2,-1.4217429E-2,6.1026324E-2,2.8432298E-2,-2.8020874E-2,4.259065E-2,1.3616502E-1,9.047486E-2,4.476765E-2,-4.059991E-3,-3.6516063E-2,1.3292445E-1,-6.860524E-2,5.9287976E-2,1.6641888E-1,-2.1676456E-3,-1.0234817E-1,3.279898E-2,8.824089E-2,5.5253465E-2,-4.055694E-2,2.2678172E-2,-4.8987474E-2,-1.845623E-3,9.2387706E-2,-8.570191E-2,-5.1698145E-2,1.6761698E-1,-1.0293483E-1,-9.997512E-2,-7.13385E-2,1.0887984E-1,-8.967432E-2,-5.8738686E-2,-9.984409E-2,-6.955561E-2,-1.1381964E-1,-1.0921955E-1,-2.8659284E-2,-6.320466E-2,-1.1986063E-1,-2.3305065E-3,-3.940798E-2,4.2360947E-2,-4.6526823E-2,1.4042157E-1,-1.8468093E-2,-1.0263906E-1,1.3481222E-2,5.9854865E-2,1.4906038E-1,-2.420268E-3,-6.890719E-2,-1.22330515E-2,-6.1615434E-2,-2.8367028E-2,6.862409E-2,-5.8688737E-2,-1.0886555E-1,5.0101383E-3,-9.394821E-2,1.0076117E-2,7.054568E-2,3.8358796E-2,1.5768628E-1,1.0558482E-1,-9.075932E-2,1.604711E-1,2.3740483E-2,-4.3010868E-2,1.958905E-2,3.546314E-2,-6.465139E-2,-9.250203E-4,6.0660716E-2,-1.1105432E-1,-6.146471E-2,9.236839E-2,-8.066323E-2,-1.3356757E-2,9.355342E-2,-4.324112E-2,1.19620524E-1,1.0085052E-1,2.1644175E-1,1.0779955E-1,-8.797677E-2,-1.004323E-1,-1.5711045E-2,1.11412525E-1,2.3589568E-2,1.0006366E-1,-3.702497E-2,-8.870684E-2,5.8835775E-2,1.3407438E-1,-7.0112236E-3],"split_indices":[1,8,3,8,1,1,1,2,3,8,3,6,0,0,3,0,0,0,0,0,8,0,0,8,0,0,0,8,2,8,3,8,0,8,2,2,8,0,0,0,0,8,2,0,6,0,0,0,0,0,0,2,8,2,0,1,2,4,0,0,0,0,0,0,0,8,0,0,0,2,2,0,0,8,8,0,0,0,0,0,0,8,2,2,0,8,8,8,8,3,0,2,3,8,0,8,2,0,0,2,0,0,0,8,8,1,0,0,2,0,8,8,0,2,8,0,0,0,0,8,0,2,0,2,2,8,8,8,0,8,0,0,0,2,8,8,8,8,0,8,0,0,0,0,0,0,2,0,0,0,0,0,0,2,0,8,8,0,3,2,8,8,0,0,0,0,0,3,8,0,0,0,0,0,0,0,0,0,0,0,0,0,0,0,0,0,0,0,0,0,0,0,0,0,0,0,0,0,0,0,0,0,0,0,0,0,0,0,0,0,0,0,0,0,0,0,0,0,0,0,0,0,0,0,0,0,0,0,0,0,0,0,0,0,0,0,0,0,0,0,0,0,0,0,0,0,0,0,0,0,0,0,0,0,0,0,0,0,0,0,0,0,0,0,0,0,0,0,0,0,0],"split_type":[0,0,0,0,0,0,0,0,0,0,0,0,0,0,0,0,0,0,0,0,0,0,0,0,0,0,0,0,0,0,0,0,0,0,0,0,0,0,0,0,0,0,0,0,0,0,0,0,0,0,0,0,0,0,0,0,0,0,0,0,0,0,0,0,0,0,0,0,0,0,0,0,0,0,0,0,0,0,0,0,0,0,0,0,0,0,0,0,0,0,0,0,0,0,0,0,0,0,0,0,0,0,0,0,0,0,0,0,0,0,0,0,0,0,0,0,0,0,0,0,0,0,0,0,0,0,0,0,0,0,0,0,0,0,0,0,0,0,0,0,0,0,0,0,0,0,0,0,0,0,0,0,0,0,0,0,0,0,0,0,0,0,0,0,0,0,0,0,0,0,0,0,0,0,0,0,0,0,0,0,0,0,0,0,0,0,0,0,0,0,0,0,0,0,0,0,0,0,0,0,0,0,0,0,0,0,0,0,0,0,0,0,0,0,0,0,0,0,0,0,0,0,0,0,0,0,0,0,0,0,0,0,0,0,0,0,0,0,0,0,0,0,0,0,0,0,0,0,0,0,0,0,0,0,0,0,0,0,0,0,0,0,0,0,0,0,0,0,0,0,0],"sum_hessian":[5.3487144E3,3.8471868E3,1.5015273E3,4.795835E2,3.3676033E3,8.3340466E2,6.681227E2,1.5336047E2,3.2622302E2,1.5180917E3,1.8495116E3,8.163611E2,1.704363E1,3.876911E2,2.804316E2,1.444283E2,8.932169E0,2.594546E2,6.6768425E1,2.862896E2,1.2318021E3,1.30847E3,5.410416E2,8.142894E2,2.0716245E0,2.8213246E0,1.4222306E1,3.0599164E2,8.1699455E1,1.988195E2,8.161212E1,1.4323071E2,1.1975873E0,6.4169716E1,1.9528488E2,6.0056454E1,6.711966E0,2.3909077E2,4.7198826E1,7.334634E2,4.983387E2,7.291067E2,5.793633E2,1.4932701E2,3.917146E2,2.5582335E2,5.5846606E2,1.3853496E0,1.4359748E0,1.2960214E1,1.2620922E0,1.7276187E2,1.3322977E2,5.5933E1,2.5766457E1,1.8874635E2,1.0073142E1,5.6631523E1,2.4980597E1,5.0984554E1,9.224616E1,3.7689518E1,2.6480198E1,1.7145425E2,2.383064E1,5.4764282E1,5.292174E0,1.9304304E0,4.7815356E0,8.349054E1,1.5560023E2,3.8806377E1,8.392447E0,5.3003046E2,2.0343294E2,1.969733E2,3.0136542E2,6.8261176E2,4.6494946E1,5.3503815E2,4.4325134E1,1.3071655E1,1.3625536E2,3.893904E2,2.3241763E0,3.7298944E0,2.5209346E2,2.1968061E1,5.3649805E2,1.2169021E2,5.107166E1,1.1767691E2,1.5552853E1,4.8325233E1,7.6077642E0,1.7072104E1,8.694355E0,1.8433835E2,4.4080105E0,7.440253E0,2.6328897E0,5.387457E1,2.7569525E0,3.0285217E1,2.0699337E1,7.0385826E1,2.186034E1,3.4296274E0,3.425989E1,2.7068036E0,2.3773396E1,1.66742E2,4.7122474E0,1.7955645E1,5.8749976E0,3.9891983E1,1.4872297E1,7.345394E1,1.0036597E1,1.4333171E2,1.2268523E1,3.1302878E2,2.1700165E2,2.0257376E1,1.8317557E2,1.1200785E2,1.8935757E2,1.3421954E2,5.483922E2,4.8905444E2,4.598373E1,1.833352E0,4.2491783E1,9.490143E0,3.5815122E0,1.1312181E2,2.3133541E1,2.0913884E2,1.8025159E2,2.5599422E0,1.169952E0,1.1523297E0,2.5094113E2,1.3944348E1,8.023712E0,4.901422E2,4.635581E1,9.877631E1,2.2913893E1,1.3341138E0,4.9737545E1,1.0467936E2,1.2997554E1,1.0938089E1,4.614763E0,3.5061764E1,1.3263471E1,1.2037692E0,6.4039946E0,4.854267E0,1.2217835E1,6.935387E0,1.7589674E0,1.9453856E0,2.462625E0,4.965092E0,2.4751606E0,3.260763E1,2.1266937E1,1.8406239E1,1.187898E1,6.33607E0,1.4363267E1,6.0159267E1,1.0226557E1,1.155055E1,1.0309789E1,3.2443214E1,1.8166769E0,1.4160228E0,1.2907808E0,4.283992E0,1.9489403E1,8.084187E1,8.590012E1,3.4105546E0,1.3016928E0,1.4619854E1,3.3357897E0,2.2636309E0,3.611367E0,1.48811245E1,2.501086E1,1.1249422E1,3.6228752E0,1.0681916E1,6.2772026E1,5.4602857E0,4.5763116E0,1.2874782E2,1.4583896E1,3.8142025E0,8.454321E0,1.960653E2,1.1696346E2,1.2198869E1,8.058508E0,1.4201755E2,4.1158016E1,7.385449E1,3.8153355E1,1.8811761E2,1.239953E0,1.14132416E2,2.008713E1,1.967261E2,3.516661E2,4.1380045E2,7.525398E1,3.7953968E1,8.029761E0,4.0863773E1,1.6280107E0,7.971574E0,1.5185689E0,2.40236E0,1.1791524E0,5.114906E0,1.08006905E2,1.9345615E1,3.7879264E0,5.349706E0,2.0378912E2,1.5338892E1,1.6491269E2,1.1465709E0,1.4133713E0,3.7813218E0,1.0163027E1,2.5919106E0,5.4318013E0,3.7679604E1,8.676207E0,9.4314285E1,4.4620247E0,2.050299E1,2.410903E0,2.9075577E1,2.0661968E1,7.8484483E0,9.683091E1,7.3505335E0,3.5875561E0,1.1082838E1,2.3978924E1,1.2020199E1,1.243272E0,4.465162E0,1.9388329E0,2.8498068E0,2.0044603E0,1.1189636E1,1.0281998E0,5.423132E0,1.5122551E0,1.1514152E0,1.3237455E0,2.0740639E1,1.1866993E1,4.180939E0,1.7085999E1],"tree_param":{"num_deleted":"0","num_feature":"9","num_nodes":"271","size_leaf_vector":"1"}},{"base_weights":[-1.52244335E-2,-4.2637673E-1,1.0101664E0,-5.2928674E-1,5.0046E-1,1.5062673E0,3.918826E-1,2.1292846E-1,-6.461993E-1,5.9598374E-1,-8.020429E-1,1.5513755E0,-7.1092725E-1,-2.045521E-1,1.1858103E0,1.0455009E-1,7.186241E-1,-8.7405914E-1,-4.5424047E-1,6.4393026E-1,-8.9300483E-1,-6.0720116E-1,-1.0966321E-1,1.5614797E0,-1.0180175E-1,1.3672148E-1,-9.5359373E-1,-2.9274327E-1,4.4581312E-1,1.4573016E0,5.196598E-1,3.6007366E-1,-1.1537222E-1,8.1792986E-1,1.6681626E-1,-6.1490816E-1,-9.3481606E-1,-2.971668E-1,-7.749089E-1,8.856258E-1,3.9925233E-1,-1.1237469E0,6.91069E-2,-7.5427055E-1,2.8744203E-1,2.2702876E-2,1.5673867E0,-1.048005E0,1.848902E-2,-2.1866962E-1,-5.79904E-1,5.258712E-1,-6.4421135E-1,1.5061791E0,4.382532E-1,1.2966695E-2,1.706538E-1,2.9038165E-3,3.9753056E-1,-2.3916352E-1,7.8759336E-1,6.7666876E-1,1.22952044E-1,5.207046E-3,6.3949734E-2,-6.7311007E-1,1.10922575E-1,-9.912688E-1,-8.7828124E-1,-6.2855434E-1,-2.2122619E-1,-3.9023328E-1,-9.4323206E-1,-5.635101E-1,9.91338E-1,-1.9083616E-1,5.8193517E-1,-1.1963717E-1,-3.0769E-2,-9.051564E-1,2.794464E-2,7.1215115E-2,-2.480929E-2,1.599198E-1,1.3474069E0,-4.519322E-5,-1.158721E-1,-3.1119847E-1,1.3085118E-1,1.510538E-1,-6.399823E-1,9.8194145E-2,7.5603056E-1,-1.5967209E-2,-7.7811174E-2,1.5389107E-1,8.6048084E-1,6.907546E-1,-7.808168E-2,-1.0032879E-1,1.6093394E-1,4.25345E-1,3.152719E-1,-1.9495368E-2,-3.8776645E-1,-8.100568E-3,1.0149075E-1,-2.0360587E-2,7.2376883E-1,-6.151598E-1,-1.1383976E-1,-8.083768E-1,-1.0229871E0,-8.2019156E-1,-1.057094E-1,-5.8431095E-1,-1.13565445E-1,2.4182878E-1,-2.8909633E-1,-4.2767372E-2,-4.4851977E-1,-9.5486385E-1,1.3750166E-1,-6.482586E-1,6.6574365E-3,1.0413296E0,-5.9307957E-1,-1.0063653E0,1.3490964E0,8.439197E-1,-2.1370332E-1,-2.0634089E-2,-9.521009E-2,-6.758611E-1,1.4009613E0,-2.3809746E-1,-5.4061973E-1,2.3128027E-1,-1.0587748E-1,-7.4243283E-1,-3.923575E-1,5.178663E-1,-4.6408468E-1,1.1890877E0,3.0033433E-1,1.2313495E0,5.072053E-1,-1.5626459E-1,1.1269965E-1,-3.7334922E-1,3.4748703E-1,3.9005235E-2,5.0030496E-2,2.8814709E-2,4.5036267E-2,7.910996E-3,-1.0193786E-2,-3.6901355E-2,-8.890795E-2,6.4304344E-2,1.4255178E-1,-4.9774535E-2,-7.1755335E-2,-8.756497E-2,-3.2703436E-3,-1.02614604E-1,-4.3327548E-2,-8.397524E-2,-1.8595802E-2,-7.623946E-2,-4.2791292E-2,-1.502601E-2,9.925138E-2,-5.2719265E-2,-1.3729987E-2,-1.1775713E-2,5.8362402E-2,-5.050108E-2,-1.592476E-2,-9.079126E-2,-1.20194785E-1,-6.77127E-2,-2.001895E-2,8.573708E-2,1.4433937E-1,-9.844954E-2,3.628805E-2,-1.27117E-1,-2.043067E-2,1.6111358E-1,-7.899312E-2,7.217956E-2,1.6395475E-1,-1.1105263E-1,8.572157E-2,-9.329307E-3,-9.575098E-2,1.5663864E-1,9.0642415E-2,-3.551191E-2,2.672027E-2,-9.327997E-2,-3.602303E-2,3.1672146E-2,-1.0658085E-1,-7.909672E-2,4.1411396E-2,3.674805E-2,-4.6835646E-2,1.2966377E-3,1.11528374E-1,5.596443E-2,-7.366695E-2,5.198676E-2,1.3299651E-1,-1.9848544E-2,1.1437309E-1,1.381569E-1,4.2202633E-2,4.0831487E-3,1.21533744E-1,5.507293E-2,-6.2324878E-2,-5.1713843E-2,1.6248107E-1,9.4744705E-2,-5.9951353E-3],"categories":[],"categories_nodes":[],"categories_segments":[],"categories_sizes":[],"default_left":[0,0,0,0,0,0,0,0,0,0,0,0,0,0,0,0,0,0,0,0,0,0,0,0,0,0,0,0,0,0,0,0,0,0,0,0,0,0,0,0,0,0,0,0,0,0,0,0,0,0,0,0,0,0,0,0,0,0,0,0,0,0,0,0,0,0,0,0,0,0,0,0,0,0,0,0,0,0,0,0,0,0,0,0,0,0,0,0,0,0,0,0,0,0,0,0,0,0,0,0,0,0,0,0,0,0,0,0,0,0,0,0,0,0,0,0,0,0,0,0,0,0,0,0,0,0,0,0,0,0,0,0,0,0,0,0,0,0,0,0,0,0,0,0,0,0,0,0,0,0,0,0,0,0,0,0,0,0,0,0,0,0,0,0,0,0,0,0,0,0,0,0,0,0,0,0,0,0,0,0,0,0,0,0,0,0,0,0,0,0,0,0,0,0,0,0,0,0,0,0,0,0,0,0,0,0,0,0,0,0,0,0,0,0,0,0,0,0,0,0,0,0,0,0,0,0,0],"id":6,"left_children":[1,3,5,7,9,11,13,15,17,19,21,23,25,27,29,31,33,35,37,39,41,43,-1,45,-1,-1,47,49,51,53,55,57,59,61,63,65,67,69,71,73,75,77,-1,79,81,-1,83,85,-1,87,89,91,93,95,97,99,-1,-1,101,103,105,107,-1,-1,-1,109,-1,111,113,115,117,119,121,123,125,127,129,-1,-1,131,-1,-1,-1,-1,133,-1,-1,135,137,-1,139,141,143,-1,-1,-1,145,147,-1,149,-1,151,153,155,157,-1,-1,-1,159,161,-1,163,165,167,-1,169,-1,171,173,175,177,179,-1,181,-1,183,185,187,189,191,193,-1,-1,195,197,199,201,203,-1,205,207,209,211,213,215,217,219,221,-1,223,225,-1,-1,-1,-1,-1,-1,-1,-1,-1,-1,-1,-1,-1,-1,-1,-1,-1,-1,-1,-1,-1,-1,-1,-1,-1,-1,-1,-1,-1,-1,-1,-1,-1,-1,-1,-1,-1,-1,-1,-1,-1,-1,-1,-1,-1,-1,-1,-1,-1,-1,-1,-1,-1,-1,-1,-1,-1,-1,-1,-1,-1,-1,-1,-1,-1,-1,-1,-1,-1,-1,-1,-1,-1,-1,-1,-1],"loss_changes":[2.1854653E3,3.531881E2,4.544973E2,2.8917004E2,4.6550278E1,8.339612E1,3.1364587E2,2.4808332E1,1.25478516E2,2.524585E1,8.1085014E-1,2.253357E1,9.923191E0,2.1856228E1,5.061725E1,2.1118357E1,4.24522E0,2.0126709E1,7.854852E1,1.947934E1,4.8701115E0,2.549127E0,0E0,5.9816895E0,0E0,0E0,1.9021387E0,6.981062E0,4.3204317E0,9.364441E0,5.037663E1,2.1426601E0,2.2804823E1,3.093132E0,6.962892E-1,2.6097069E1,2.522522E0,2.6321144E1,3.2888123E1,2.627826E1,1.8272757E1,2.3381042E-1,0E0,2.670457E0,9.105724E-1,0E0,3.4450684E0,1.7191029E0,0E0,8.683499E0,9.496277E0,4.16391E0,1.0746133E-1,2.7261047E0,3.8089333E0,1.09660015E1,0E0,0E0,2.2281075E-1,5.825944E0,4.944704E0,2.323389E0,0E0,0E0,0E0,5.905739E0,0E0,2.2138672E0,4.741699E0,3.7222366E0,2.7001915E1,3.1815262E0,1.0928101E1,6.867378E-1,1.3040466E1,5.2321785E1,2.7048138E1,0E0,0E0,2.5498676E-1,0E0,0E0,0E0,0E0,1.2590103E1,0E0,0E0,3.4199886E0,7.012103E0,0E0,1.4013672E0,4.06624E0,5.137375E0,0E0,0E0,0E0,8.840313E-1,3.623547E0,0E0,7.0646954E0,0E0,1.0568237E-1,2.8829098E-2,6.0282445E-1,6.7352295E-1,0E0,0E0,0E0,1.9179115E0,2.288269E0,0E0,4.262764E0,3.8061523E-1,4.955475E0,0E0,4.7387886E0,0E0,3.2553123E1,2.6956966E1,1.1870518E0,2.1294384E0,3.0314636E0,0E0,3.065586E-3,0E0,1.0034882E1,2.3906782E0,5.4967613E0,9.3875065E0,8.25808E0,3.2383728E1,0E0,0E0,4.7600257E-1,7.170868E0,9.689223E0,3.225524E0,6.21721E0,0E0,2.9137878E0,1.4221516E0,2.9284801E0,2.4930983E0,6.22633E-1,6.4973955E0,1.47099495E-2,2.4594498E0,1.680336E0,0E0,1.1103144E1,5.4350157E0,0E0,0E0,0E0,0E0,0E0,0E0,0E0,0E0,0E0,0E0,0E0,0E0,0E0,0E0,0E0,0E0,0E0,0E0,0E0,0E0,0E0,0E0,0E0,0E0,0E0,0E0,0E0,0E0,0E0,0E0,0E0,0E0,0E0,0E0,0E0,0E0,0E0,0E0,0E0,0E0,0E0,0E0,0E0,0E0,0E0,0E0,0E0,0E0,0E0,0E0,0E0,0E0,0E0,0E0,0E0,0E0,0E0,0E0,0E0,0E0,0E0,0E0,0E0,0E0,0E0,0E0,0E0,0E0,0E0,0E0,0E0,0E0,0E0,0E0,0E0,0E0],"parents":[2147483647,0,0,1,1,2,2,3,3,4,4,5,5,6,6,7,7,8,8,9,9,10,10,11,11,12,12,13,13,14,14,15,15,16,16,17,17,18,18,19,19,20,20,21,21,23,23,26,26,27,27,28,28,29,29,30,30,31,31,32,32,33,33,34,34,35,35,36,36,37,37,38,38,39,39,40,40,41,41,43,43,44,44,46,46,47,47,49,49,50,50,51,51,52,52,53,53,54,54,55,55,58,58,59,59,60,60,61,61,65,65,67,67,68,68,69,69,70,70,71,71,72,72,73,73,74,74,75,75,76,76,79,79,84,84,87,87,88,88,90,90,91,91,92,92,96,96,97,97,99,99,101,101,102,102,103,103,104,104,108,108,109,109,111,111,112,112,113,113,115,115,117,117,118,118,119,119,120,120,121,121,123,123,125,125,126,126,127,127,128,128,129,129,130,130,133,133,134,134,135,135,136,136,137,137,139,139,140,140,141,141,142,142,143,143,144,144,145,145,146,146,147,147,149,149,150,150],"right_children":[2,4,6,8,10,12,14,16,18,20,22,24,26,28,30,32,34,36,38,40,42,44,-1,46,-1,-1,48,50,52,54,56,58,60,62,64,66,68,70,72,74,76,78,-1,80,82,-1,84,86,-1,88,90,92,94,96,98,100,-1,-1,102,104,106,108,-1,-1,-1,110,-1,112,114,116,118,120,122,124,126,128,130,-1,-1,132,-1,-1,-1,-1,134,-1,-1,136,138,-1,140,142,144,-1,-1,-1,146,148,-1,150,-1,152,154,156,158,-1,-1,-1,160,162,-1,164,166,168,-1,170,-1,172,174,176,178,180,-1,182,-1,184,186,188,190,192,194,-1,-1,196,198,200,202,204,-1,206,208,210,212,214,216,218,220,222,-1,224,226,-1,-1,-1,-1,-1,-1,-1,-1,-1,-1,-1,-1,-1,-1,-1,-1,-1,-1,-1,-1,-1,-1,-1,-1,-1,-1,-1,-1,-1,-1,-1,-1,-1,-1,-1,-1,-1,-1,-1,-1,-1,-1,-1,-1,-1,-1,-1,-1,-1,-1,-1,-1,-1,-1,-1,-1,-1,-1,-1,-1,-1,-1,-1,-1,-1,-1,-1,-1,-1,-1,-1,-1,-1,-1,-1,-1],"split_conditions":[3E0,6E0,2E0,2.1E1,2.8E1,8E0,4E0,2E0,2E0,2E0,2.43E2,1E0,7.8E1,9.6E1,3E0,1.6E1,2E1,2.8E1,2E0,9.1E1,1.65E2,2E0,-1.0966321E-1,2.9E1,-1.0180175E-1,1.3672148E-1,1.78E2,3E0,1.5E1,6E0,5E0,1E1,1E0,1.9E1,1E0,2E0,4.8E1,3.7E1,3.3E1,6.2E1,2E0,1.13E2,6.91069E-2,6.2E1,3.4E1,2.2702876E-2,4E0,1E0,1.848902E-2,6.5E1,4.8E1,2E0,1.6E1,1.65E2,1.65E2,1E0,1.706538E-1,2.9038165E-3,1.5E1,1.8E1,1.7E1,1.2E1,1.22952044E-1,5.207046E-3,6.3949734E-2,1E0,1.10922575E-1,3.1E1,9E0,1E0,4.1E1,2.3E1,1E0,6.1E1,3E0,2.7E1,1.5E1,-1.1963717E-1,-3.0769E-2,1.16E2,2.794464E-2,7.1215115E-2,-2.480929E-2,1.599198E-1,4.4E1,-4.519322E-5,-1.158721E-1,1E0,3E0,1.510538E-1,7.9E1,1.13E2,6E0,-1.5967209E-2,-7.7811174E-2,1.5389107E-1,1E1,9.4E1,-7.808168E-2,7.1E1,1.6093394E-1,1.4E1,1E0,1.7E1,2E0,-8.100568E-3,1.0149075E-1,-2.0360587E-2,1E0,2.4E1,-1.1383976E-1,2E0,5E0,1.05E2,-1.057094E-1,3.1E1,-1.13565445E-1,4E1,1E0,1E0,1E0,2E0,1.3750166E-1,1E0,6.6574365E-3,1.5E1,8.8E1,4E0,1E2,1.57E2,1.28E2,-2.0634089E-2,-9.521009E-2,4E1,9E0,3E0,2E0,9.1E1,-1.0587748E-1,7E0,4E0,9E0,8E0,1.06E2,1.3E2,2E0,4E0,7E0,1.1269965E-1,3E0,7.9E1,3.9005235E-2,5.0030496E-2,2.8814709E-2,4.5036267E-2,7.910996E-3,-1.0193786E-2,-3.6901355E-2,-8.890795E-2,6.4304344E-2,1.4255178E-1,-4.9774535E-2,-7.1755335E-2,-8.756497E-2,-3.2703436E-3,-1.02614604E-1,-4.3327548E-2,-8.397524E-2,-1.8595802E-2,-7.623946E-2,-4.2791292E-2,-1.502601E-2,9.925138E-2,-5.2719265E-2,-1.3729987E-2,-1.1775713E-2,5.8362402E-2,-5.050108E-2,-1.592476E-2,-9.079126E-2,-1.20194785E-1,-6.77127E-2,-2.001895E-2,8.573708E-2,1.4433937E-1,-9.844954E-2,3.628805E-2,-1.27117E-1,-2.043067E-2,1.6111358E-1,-7.899312E-2,7.217956E-2,1.6395475E-1,-1.1105263E-1,8.572157E-2,-9.329307E-3,-9.575098E-2,1.5663864E-1,9.0642415E-2,-3.551191E-2,2.672027E-2,-9.327997E-2,-3.602303E-2,3.1672146E-2,-1.0658085E-1,-7.909672E-2,4.1411396E-2,3.674805E-2,-4.6835646E-2,1.2966377E-3,1.11528374E-1,5.596443E-2,-7.366695E-2,5.198676E-2,1.3299651E-1,-1.9848544E-2,1.1437309E-1,1.381569E-1,4.2202633E-2,4.0831487E-3,1.21533744E-1,5.507293E-2,-6.2324878E-2,-5.1713843E-2,1.6248107E-1,9.4744705E-2,-5.9951353E-3],"split_indices":[1,7,3,0,7,1,1,3,1,3,0,6,0,0,3,0,0,0,3,0,0,1,0,0,0,0,0,2,2,1,3,0,2,0,2,2,0,0,0,0,1,0,0,7,7,0,1,7,0,0,0,2,2,0,0,4,0,0,0,0,0,0,0,0,0,7,0,0,2,7,0,0,6,0,2,7,7,0,0,0,0,0,0,0,0,0,0,7,3,0,0,0,2,0,0,0,7,0,0,0,0,0,2,0,1,0,0,0,2,0,0,2,2,0,0,0,0,0,2,2,2,7,0,2,0,7,0,2,0,0,0,0,0,0,7,3,7,0,0,2,2,7,7,0,0,2,2,1,0,2,0,0,0,0,0,0,0,0,0,0,0,0,0,0,0,0,0,0,0,0,0,0,0,0,0,0,0,0,0,0,0,0,0,0,0,0,0,0,0,0,0,0,0,0,0,0,0,0,0,0,0,0,0,0,0,0,0,0,0,0,0,0,0,0,0,0,0,0,0,0,0,0,0,0,0,0,0],"split_type":[0,0,0,0,0,0,0,0,0,0,0,0,0,0,0,0,0,0,0,0,0,0,0,0,0,0,0,0,0,0,0,0,0,0,0,0,0,0,0,0,0,0,0,0,0,0,0,0,0,0,0,0,0,0,0,0,0,0,0,0,0,0,0,0,0,0,0,0,0,0,0,0,0,0,0,0,0,0,0,0,0,0,0,0,0,0,0,0,0,0,0,0,0,0,0,0,0,0,0,0,0,0,0,0,0,0,0,0,0,0,0,0,0,0,0,0,0,0,0,0,0,0,0,0,0,0,0,0,0,0,0,0,0,0,0,0,0,0,0,0,0,0,0,0,0,0,0,0,0,0,0,0,0,0,0,0,0,0,0,0,0,0,0,0,0,0,0,0,0,0,0,0,0,0,0,0,0,0,0,0,0,0,0,0,0,0,0,0,0,0,0,0,0,0,0,0,0,0,0,0,0,0,0,0,0,0,0,0,0,0,0,0,0,0,0,0,0,0,0,0,0,0,0,0,0,0,0],"sum_hessian":[5.1818203E3,3.6991511E3,1.4826693E3,3.3298542E3,3.692967E2,8.21819E2,6.608503E2,4.5302426E2,2.87683E3,3.4456894E2,2.4727758E1,8.057269E2,1.6092012E1,3.7778406E2,2.8306625E2,3.7406345E2,7.8960815E1,1.3137833E3,1.5630468E3,3.3436954E2,1.0199412E1,1.6726204E1,8.0015545E0,8.0296155E2,2.765375E0,1.1980494E0,1.4893962E1,3.3315698E2,4.462706E1,2.002615E2,8.280475E1,1.7273207E2,2.0133139E2,6.6509254E1,1.2451563E1,2.5162576E2,1.0621576E3,1.0504362E3,5.126106E2,1.6689215E2,1.6747739E2,9.156273E0,1.0431399E0,1.4499545E1,2.2266598E0,3.7125134E0,7.99249E2,1.3826816E1,1.0671464E0,2.662411E2,6.691589E1,4.2055786E1,2.5712748E0,1.9063966E2,9.621836E0,5.873918E1,2.4065569E1,1.7738503E1,1.5499356E2,1.777043E2,2.3627085E1,5.1483685E1,1.5025566E1,1.0912625E1,1.5389374E0,2.4399866E2,7.627108E0,5.2319147E2,5.389661E2,1.9448239E2,8.559538E2,1.570397E2,3.5557086E2,1.10523615E1,1.5583978E2,3.958104E1,1.2789635E2,7.98005E0,1.1762224E0,1.2761228E1,1.7383171E0,1.0578955E0,1.1687644E0,6.927944E2,1.0645469E2,1.4176475E0,1.2409168E1,2.105988E2,5.56423E1,1.1949332E0,6.572096E1,1.5213337E1,2.684245E1,1.0314134E0,1.5398614E0,1.8012544E2,1.0514219E1,8.329875E0,1.2919601E0,5.5721733E1,3.017451E0,1.1271124E2,4.228232E1,7.216282E1,1.0554149E2,5.0342283E0,1.8592855E1,2.4460213E0,4.9037663E1,2.1903996E2,2.4958689E1,8.12394E1,4.419521E2,4.1102588E2,1.2794024E2,1.808554E2,1.3626992E1,1.0909211E2,7.4686163E2,2.280787E1,1.3423184E2,3.5438086E2,1.1900007E0,9.716602E0,1.3357594E0,1.5140541E2,4.4343767E0,2.610346E1,1.347758E1,9.616941E1,3.1726942E1,1.1429347E0,1.1618293E1,2.4454737E0,1.0400922E2,1.6125543E2,4.9343365E1,5.2053493E1,3.5888078E0,4.5074093E1,2.0646868E1,8.7565975E0,6.456739E0,1.2937909E1,1.3904539E1,3.9168203E0,6.597399E0,3.0499E0,5.2799754E0,3.4720146E1,2.1001585E1,8.0849236E1,3.1862005E1,3.78212E1,4.461114E0,3.287869E1,3.928413E1,1.0340929E2,2.1322E0,4.5697247E1,3.340416E0,1.04766E2,1.14273964E2,7.463734E1,6.6020613E0,4.3886108E2,3.0909812E0,3.984141E2,1.2611798E1,8.275318E1,9.810221E1,7.218772E1,3.6904392E1,2.898119E2,4.5704977E2,2.1094505E1,1.7133659E0,1.1167701E2,2.2554829E1,3.0172174E2,5.2659122E1,8.648202E0,1.0684004E0,1.06026764E2,4.5378647E1,3.1250014E0,1.3093752E0,1.9184645E1,6.9188147E0,1.2226567E1,1.2510121E0,8.502568E1,1.1143723E1,1.7246862E1,1.4480079E1,1.2308325E0,1.2146412E0,7.631433E1,2.7694885E1,1.3117422E2,3.0081215E1,1.423166E1,3.5111706E1,4.9545666E1,2.507827E0,4.356211E1,1.5119809E0,1.5285978E0,1.9118269E1,5.299497E0,3.4571004E0,1.1362603E0,5.320479E0,3.0655608E0,9.872349E0,9.217554E0,4.6869855E0,2.7072554E0,1.2095649E0,4.615382E0,1.982017E0,1.1418526E0,1.9080474E0,3.308082E1,1.6393297E0,7.9579678E0,1.3043618E1],"tree_param":{"num_deleted":"0","num_feature":"9",